{"learner":{"attributes":{"scikit_learn":"{\"_estimator_type\": \"regressor\"}"},"feature_names":["Pregnancies","Glucose","BloodPressure","SkinThickness","Insulin","BMI","DiabetesPedigreeFunction","Age"],"feature_types":["int","int","int","int","int","float","float","int"],"gradient_booster":{"model":{"gbtree_model_param":{"num_parallel_tree":"1","num_trees":"100"},"iteration_indptr":[0,1,2,3,4,5,6,7,8,9,10,11,12,13,14,15,16,17,18,19,20,21,22,23,24,25,26,27,28,29,30,31,32,33,34,35,36,37,38,39,40,41,42,43,44,45,46,47,48,49,50,51,52,53,54,55,56,57,58,59,60,61,62,63,64,65,66,67,68,69,70,71,72,73,74,75,76,77,78,79,80,81,82,83,84,85,86,87,88,89,90,91,92,93,94,95,96,97,98,99,100],"tree_info":[0,0,0,0,0,0,0,0,0,0,0,0,0,0,0,0,0,0,0,0,0,0,0,0,0,0,0,0,0,0,0,0,0,0,0,0,0,0,0,0,0,0,0,0,0,0,0,0,0,0,0,0,0,0,0,0,0,0,0,0,0,0,0,0,0,0,0,0,0,0,0,0,0,0,0,0,0,0,0,0,0,0,0,0,0,0,0,0,0,0,0,0,0,0,0,0,0,0,0,0],"trees":[{"base_weights":[-5.0397424E-9,-1.4324224E-1,2.7693498E-1,-2.5343406E-1,8.143317E-3,-3.5298813E-2,3.696666E-1,-2.6120144E-1,1.3029316E-1,-2.8673068E-1,9.108456E-2,-2.2451441E-1,1.8835858E-1,2.8335658E-1,5.1954395E-1,-3.0289114E-1,-1.6567756E-1,1.3029316E-1,-1.0165582E-1,-8.4848166E-2,2.372568E-1,-2.5459284E-1,1.0097719E-1,-8.364821E-2,3.0138865E-1,1.8040591E-1,2.3585863E-1,5.620145E-1,1.2982781E-1,-3.3113766E-1,-1.5044035E-1,-2.688072E-1,-2.5142513E-2,-1.7460641E-1,2.0803474E-1,1.3843647E-1,4.2540714E-1,-1.1400655E-2,-2.872372E-1,9.771987E-2,-5.228013E-2,3.7785015E-1,-6.970684E-2,6.629104E-2,3.4179094E-1,3.9305103E-1,1.8985575E-1,1.465798E-1,-7.842019E-2,-1.01424135E-1,-4.676594E-2,-6.437785E-2,1.3029316E-1,2.1009771E-2,-1.0157283E-1,-9.149023E-2,1.9622147E-2,-6.635644E-2,3.8948346E-2,1.6286646E-1,-4.104236E-3,9.203117E-2,-2.1753294E-2,4.039088E-2,1.6629623E-1,-6.970684E-2,9.771987E-2,-2.3648212E-2,-9.875136E-2,1.2697475E-1,-5.228013E-2,5.4217678E-2,-9.2942454E-2,2.5895763E-2,1.1636808E-1,1.3100211E-1,-5.228013E-2],"categories":[],"categories_nodes":[],"categories_segments":[],"categories_sizes":[],"default_left":[0,0,0,0,0,0,0,0,0,0,0,0,0,0,0,0,0,0,0,0,0,0,0,0,0,0,0,0,0,0,0,0,0,0,0,0,0,0,0,0,0,0,0,0,0,0,0,0,0,0,0,0,0,0,0,0,0,0,0,0,0,0,0,0,0,0,0,0,0,0,0,0,0,0,0,0,0],"id":0,"left_children":[1,3,5,7,9,11,13,15,-1,17,19,21,23,25,27,29,31,-1,-1,33,35,37,39,-1,41,-1,43,45,47,49,51,53,55,57,59,61,63,65,67,-1,-1,69,-1,71,73,75,-1,-1,-1,-1,-1,-1,-1,-1,-1,-1,-1,-1,-1,-1,-1,-1,-1,-1,-1,-1,-1,-1,-1,-1,-1,-1,-1,-1,-1,-1,-1],"loss_changes":[2.4435974E1,6.7747316E0,6.093376E0,1.3688068E0,4.2327576E0,2.1159434E0,1.9484043E0,8.777075E-1,0E0,1.5752885E0,3.4918551E0,2.9004538E-1,1.2985744E0,1.4441042E0,8.8701916E-1,6.4348316E-1,1.0512543E0,0E0,0E0,1.6662208E0,1.3169961E0,1.9519663E-1,2.4235271E-1,0E0,8.6320376E-1,0E0,1.6478724E0,3.7364578E-1,1.1102515E0,1.1155605E-1,1.1060569E0,1.0166113E0,8.307648E-1,7.0940804E-1,1.1210601E0,1.7977266E0,8.624759E-1,3.7365204E-1,1.6632044E-1,0E0,0E0,4.9987316E-1,0E0,1.6484238E0,6.378584E-1,5.2156043E-1,0E0,0E0,0E0,0E0,0E0,0E0,0E0,0E0,0E0,0E0,0E0,0E0,0E0,0E0,0E0,0E0,0E0,0E0,0E0,0E0,0E0,0E0,0E0,0E0,0E0,0E0,0E0,0E0,0E0,0E0,0E0],"parents":[2147483647,0,0,1,1,2,2,3,3,4,4,5,5,6,6,7,7,9,9,10,10,11,11,12,12,13,13,14,14,15,15,16,16,19,19,20,20,21,21,22,22,24,24,26,26,27,27,28,28,29,29,30,30,31,31,32,32,33,33,34,34,35,35,36,36,37,37,38,38,41,41,43,43,44,44,45,45],"right_children":[2,4,6,8,10,12,14,16,-1,18,20,22,24,26,28,30,32,-1,-1,34,36,38,40,-1,42,-1,44,46,48,50,52,54,56,58,60,62,64,66,68,-1,-1,70,-1,72,74,76,-1,-1,-1,-1,-1,-1,-1,-1,-1,-1,-1,-1,-1,-1,-1,-1,-1,-1,-1,-1,-1,-1,-1,-1,-1,-1,-1,-1,-1,-1,-1],"split_conditions":[1.31E2,3E1,2.89E1,4.54E1,2.7E1,1.46E2,1.66E2,2.9E1,1.3029316E-1,1.82E1,1.07E2,1.1E1,2E0,6.1E1,1.095E0,1.19E2,4.97E-1,1.3029316E-1,-1.0165582E-1,6.12E-1,5.51E-1,5.5E1,1.2E1,-8.364821E-2,6E1,1.8040591E-1,3.1E1,3E-1,2.6E1,8.2E1,5E0,3.19E1,3.25E1,3.94E1,1.4E1,7.5E1,7E0,2E0,2.39E1,9.771987E-2,-5.228013E-2,9.2E1,-6.970684E-2,2.55E2,2.19E-1,2.84E-1,1.8985575E-1,1.465798E-1,-7.842019E-2,-1.01424135E-1,-4.676594E-2,-6.437785E-2,1.3029316E-1,2.1009771E-2,-1.0157283E-1,-9.149023E-2,1.9622147E-2,-6.635644E-2,3.8948346E-2,1.6286646E-1,-4.104236E-3,9.203117E-2,-2.1753294E-2,4.039088E-2,1.6629623E-1,-6.970684E-2,9.771987E-2,-2.3648212E-2,-9.875136E-2,1.2697475E-1,-5.228013E-2,5.4217678E-2,-9.2942454E-2,2.5895763E-2,1.1636808E-1,1.3100211E-1,-5.228013E-2],"split_indices":[1,7,5,5,5,1,1,3,0,5,1,0,0,2,6,1,6,0,0,6,6,2,0,0,7,0,7,6,7,2,0,5,5,5,4,2,3,0,5,0,0,2,0,4,6,6,0,0,0,0,0,0,0,0,0,0,0,0,0,0,0,0,0,0,0,0,0,0,0,0,0,0,0,0,0,0,0],"split_type":[0,0,0,0,0,0,0,0,0,0,0,0,0,0,0,0,0,0,0,0,0,0,0,0,0,0,0,0,0,0,0,0,0,0,0,0,0,0,0,0,0,0,0,0,0,0,0,0,0,0,0,0,0,0,0,0,0,0,0,0,0,0,0,0,0,0,0,0,0,0,0,0,0,0,0,0,0],"sum_hessian":[6.14E2,4.05E2,2.09E2,2.34E2,1.71E2,4.8E1,1.61E2,2.32E2,2E0,3.7E1,1.34E2,2.6E1,2.2E1,1.04E2,5.7E1,1.6E2,7.2E1,2E0,3.5E1,6.1E1,7.3E1,2.4E1,2E0,4E0,1.8E1,1.2E1,9.2E1,5.1E1,6E0,1.34E2,2.6E1,4.1E1,3.1E1,4.7E1,1.4E1,4.9E1,2.4E1,3E0,2.1E1,1E0,1E0,1.6E1,2E0,3.6E1,5.6E1,1.7E1,3.4E1,3E0,3E0,1.28E2,6E0,2.4E1,2E0,7E0,3.4E1,7E0,2.4E1,4.1E1,6E0,5E0,9E0,2.7E1,2.2E1,8E0,1.6E1,2E0,1E0,4E0,1.7E1,1.5E1,1E0,2.8E1,8E0,9E0,4.7E1,1.6E1,1E0],"tree_param":{"num_deleted":"0","num_feature":"8","num_nodes":"77","size_leaf_vector":"1"}},{"base_weights":[1.3424784E-3,-9.6222624E-2,2.027762E-1,-1.6861361E-1,1.6729156E-2,9.438168E-3,2.7373412E-1,-1.741099E-1,1.0423454E-1,-2.1796338E-1,8.0275744E-2,-1.8970722E-1,7.5595245E-2,1.9149217E-1,3.460126E-1,-1.7942268E-1,1.988088E-1,7.81759E-2,-7.1910806E-2,-4.977834E-2,1.9060388E-1,-7.363844E-2,8.026466E-2,2.1923968E-1,-5.259971E-2,2.3112962E-1,-2.0392577E-1,3.609063E-1,-1.6023919E-2,-2.3252432E-1,-1.3099603E-1,1.0423454E-1,-3.706651E-2,-9.572462E-2,3.117756E-1,2.2079389E-1,-7.380754E-2,5.9710555E-2,1.3532087E-1,9.1084026E-2,-1.7013212E-1,1.1373793E-1,3.562128E-1,8.026466E-2,-9.812891E-2,2.2164874E-1,4.1190177E-1,6.924152E-2,-5.2570578E-2,-7.674924E-2,-4.7884528E-2,5.489148E-2,-4.8315216E-2,1.1011168E-1,-3.61745E-2,1.568411E-1,6.8410905E-3,7.243841E-2,-8.8113084E-2,1.12513185E-1,-7.9245865E-2,-2.6169581E-2,1.2748349E-1,-6.840522E-2,7.867366E-2,1.0246287E-1,-5.9899557E-3,1.3223137E-1,1.7403299E-2,8.142178E-2,-5.5184584E-2,1.4146751E-1,6.8800375E-2],"categories":[],"categories_nodes":[],"categories_segments":[],"categories_sizes":[],"default_left":[0,0,0,0,0,0,0,0,0,0,0,0,0,0,0,0,0,0,0,0,0,0,0,0,0,0,0,0,0,0,0,0,0,0,0,0,0,0,0,0,0,0,0,0,0,0,0,0,0,0,0,0,0,0,0,0,0,0,0,0,0,0,0,0,0,0,0,0,0,0,0,0,0],"id":1,"left_children":[1,3,5,7,9,11,13,15,-1,17,19,21,23,25,27,29,31,-1,-1,33,35,-1,-1,37,39,41,43,45,47,49,51,-1,-1,53,55,57,-1,59,-1,61,63,65,67,-1,-1,69,71,-1,-1,-1,-1,-1,-1,-1,-1,-1,-1,-1,-1,-1,-1,-1,-1,-1,-1,-1,-1,-1,-1,-1,-1,-1,-1],"loss_changes":[1.2106046E1,3.396147E0,2.7549086E0,7.781124E-1,2.4484644E0,7.3895925E-1,8.075571E-1,5.3295946E-1,0E0,4.2657983E-1,1.8604605E0,4.225884E-1,7.849406E-1,1.1599417E0,4.2097092E-1,6.0728073E-1,2.345932E-1,0E0,0E0,1.026568E0,9.7704935E-1,0E0,0E0,7.1273875E-1,4.039087E-1,9.139273E-1,4.9401686E-1,4.3421364E-1,1.9763704E-1,1.5797853E-1,1.2750454E0,0E0,0E0,6.654165E-1,4.1494638E-1,7.727308E-1,0E0,1.4266933E0,0E0,6.9192874E-1,3.8516444E-1,1.0728681E0,7.561097E-1,0E0,0E0,4.9391484E-1,4.6909618E-1,0E0,0E0,0E0,0E0,0E0,0E0,0E0,0E0,0E0,0E0,0E0,0E0,0E0,0E0,0E0,0E0,0E0,0E0,0E0,0E0,0E0,0E0,0E0,0E0,0E0,0E0],"parents":[2147483647,0,0,1,1,2,2,3,3,4,4,5,5,6,6,7,7,9,9,10,10,11,11,12,12,13,13,14,14,15,15,16,16,19,19,20,20,23,23,24,24,25,25,26,26,27,27,28,28,29,29,30,30,33,33,34,34,35,35,37,37,39,39,40,40,41,41,42,42,45,45,46,46],"right_children":[2,4,6,8,10,12,14,16,-1,18,20,22,24,26,28,30,32,-1,-1,34,36,-1,-1,38,40,42,44,46,48,50,52,-1,-1,54,56,58,-1,60,-1,62,64,66,68,-1,-1,70,72,-1,-1,-1,-1,-1,-1,-1,-1,-1,-1,-1,-1,-1,-1,-1,-1,-1,-1,-1,-1,-1,-1,-1,-1,-1,-1],"split_conditions":[1.33E2,3.1E1,3E1,4.54E1,2.7E1,2E0,1.55E2,8E0,1.0423454E-1,1.82E1,1.07E2,2.8E1,7.4E1,1.53E2,6.8E2,2.96E1,2.85E1,7.81759E-2,-7.1910806E-2,1.27E2,5.7E1,-7.363844E-2,8.026466E-2,1.6E2,2.69E-1,1.4E1,1.4E1,3E-1,6.1E1,3E0,5.2E1,1.0423454E-1,-3.706651E-2,4.4E1,2.6E1,2.31E2,-7.380754E-2,5E0,1.3532087E-1,2.78E1,1.1E1,7.4E1,2.91E2,8.026466E-2,-9.812891E-2,2.84E-1,4.2E1,6.924152E-2,-5.2570578E-2,-7.674924E-2,-4.7884528E-2,5.489148E-2,-4.8315216E-2,1.1011168E-1,-3.61745E-2,1.568411E-1,6.8410905E-3,7.243841E-2,-8.8113084E-2,1.12513185E-1,-7.9245865E-2,-2.6169581E-2,1.2748349E-1,-6.840522E-2,7.867366E-2,1.0246287E-1,-5.9899557E-3,1.3223137E-1,1.7403299E-2,8.142178E-2,-5.5184584E-2,1.4146751E-1,6.8800375E-2],"split_indices":[1,7,5,5,5,0,1,0,0,5,1,3,2,1,4,5,5,0,0,4,7,0,0,1,6,4,4,6,2,0,2,0,0,1,3,4,0,0,0,5,0,2,4,0,0,6,7,0,0,0,0,0,0,0,0,0,0,0,0,0,0,0,0,0,0,0,0,0,0,0,0,0,0],"split_type":[0,0,0,0,0,0,0,0,0,0,0,0,0,0,0,0,0,0,0,0,0,0,0,0,0,0,0,0,0,0,0,0,0,0,0,0,0,0,0,0,0,0,0,0,0,0,0,0,0,0,0,0,0,0,0,0,0,0,0,0,0,0,0,0,0,0,0,0,0,0,0,0,0],"sum_hessian":[6.14E2,4.14E2,2E2,2.52E2,1.62E2,5.4E1,1.46E2,2.5E2,2E0,3.4E1,1.28E2,1.3E1,4.1E1,7E1,7.6E1,2.47E2,3E0,1E0,3.3E1,5.9E1,6.9E1,1.2E1,1E0,1.9E1,2.2E1,6.4E1,6E0,7.3E1,3E0,1.16E2,1.31E2,2E0,1E0,5.3E1,6E0,6.5E1,4E0,1.2E1,7E0,1E1,1.2E1,3.4E1,3E1,1E0,5E0,2.1E1,5.2E1,1E0,2E0,8.6E1,3E1,1.1E1,1.2E2,2E0,5.1E1,3E0,3E0,6.3E1,2E0,6E0,6E0,7E0,3E0,1.1E1,1E0,1.2E1,2.2E1,2.3E1,7E0,1.9E1,2E0,3.8E1,1.4E1],"tree_param":{"num_deleted":"0","num_feature":"8","num_nodes":"73","size_leaf_vector":"1"}},{"base_weights":[2.526664E-3,-7.737263E-2,1.3205478E-1,-1.3606535E-1,-2.941136E-3,-1.8370187E-2,1.9215502E-1,-1.413071E-1,8.338763E-2,-3.819909E-2,2.3438244E-1,-1.0761114E-1,9.161454E-2,1.1250482E-1,2.7236903E-1,-1.6300376E-1,-7.355093E-2,1.5802817E-2,-1.895327E-1,1.3083637E-2,3.5990435E-1,-1.23620495E-1,7.2710246E-2,-9.119037E-3,2.3179325E-1,-8.915624E-2,1.4146344E-1,3.0517846E-1,2.3423075E-3,-1.24538094E-1,-1.8505833E-1,-1.03108175E-1,1.3603178E-1,-1.4136004E-2,2.614812E-1,-2.6898745E-1,-5.8504798E-2,-6.913348E-2,2.5399548E-1,4.14701E-1,-5.2867845E-2,-5.9913445E-2,-4.8957583E-2,1.0784381E-1,-1.00698695E-1,-3.8249515E-2,3.0870977E-1,2.171628E-2,2.3210332E-1,3.810144E-1,1.7436357E-1,-7.114552E-2,2.0153026E-1,-4.5302562E-2,8.712537E-2,-6.2012736E-2,-2.9965412E-2,-3.563206E-2,1.0202383E-1,-4.450338E-2,1.0708931E-2,1.110071E-1,-5.6246232E-2,-9.3070276E-2,-1.5060809E-2,-7.371171E-2,6.518487E-2,1.0837087E-1,-2.624514E-2,1.5179048E-1,-1.7453765E-2,1.7113838E-2,-5.5456836E-2,8.0114804E-2,-5.1692728E-2,1.1376914E-1,-5.947456E-2,1.122706E-1,-1.8378614E-2,7.382344E-2,-5.9514288E-2,1.2859067E-1,7.948054E-2,-3.7611857E-2,8.2629904E-2,8.5603505E-2,-3.2631516E-2],"categories":[],"categories_nodes":[],"categories_segments":[],"categories_sizes":[],"default_left":[0,0,0,0,0,0,0,0,0,0,0,0,0,0,0,0,0,0,0,0,0,0,0,0,0,0,0,0,0,0,0,0,0,0,0,0,0,0,0,0,0,0,0,0,0,0,0,0,0,0,0,0,0,0,0,0,0,0,0,0,0,0,0,0,0,0,0,0,0,0,0,0,0,0,0,0,0,0,0,0,0,0,0,0,0,0,0],"id":2,"left_children":[1,3,5,7,9,11,13,15,-1,17,19,21,23,25,27,29,31,33,35,37,39,41,-1,43,45,-1,47,49,51,53,55,57,-1,59,61,63,65,-1,67,69,-1,-1,71,-1,73,-1,75,77,79,81,83,-1,85,-1,-1,-1,-1,-1,-1,-1,-1,-1,-1,-1,-1,-1,-1,-1,-1,-1,-1,-1,-1,-1,-1,-1,-1,-1,-1,-1,-1,-1,-1,-1,-1,-1,-1],"loss_changes":[6.374978E0,1.6640315E0,2.1280656E0,5.015321E-1,1.4230682E0,6.772883E-1,1.0427194E0,2.9819775E-1,0E0,1.2124962E0,6.064037E-1,2.4287301E-1,4.3985555E-1,1.0623559E0,7.3461723E-1,1.1183977E-1,8.7230134E-1,8.1278163E-1,3.9028358E-1,5.8655214E-1,4.8437572E-1,2.0042604E-1,0E0,6.7756516E-1,3.9862096E-1,0E0,8.741231E-1,6.6768026E-1,5.248365E-1,7.1388376E-1,1.619165E-1,3.9446938E-1,0E0,6.674016E-1,6.541608E-1,2.0100582E-1,8.794308E-1,0E0,2.1470481E-1,5.904968E-1,0E0,0E0,2.986603E-1,0E0,4.673683E-1,0E0,4.6844327E-1,1.0759782E0,3.255496E-1,1.4071941E-1,9.130634E-1,0E0,1.8708475E-1,0E0,0E0,0E0,0E0,0E0,0E0,0E0,0E0,0E0,0E0,0E0,0E0,0E0,0E0,0E0,0E0,0E0,0E0,0E0,0E0,0E0,0E0,0E0,0E0,0E0,0E0,0E0,0E0,0E0,0E0,0E0,0E0,0E0,0E0],"parents":[2147483647,0,0,1,1,2,2,3,3,4,4,5,5,6,6,7,7,9,9,10,10,11,11,12,12,13,13,14,14,15,15,16,16,17,17,18,18,19,19,20,20,21,21,23,23,24,24,26,26,27,27,28,28,29,29,30,30,31,31,33,33,34,34,35,35,36,36,38,38,39,39,42,42,44,44,46,46,47,47,48,48,49,49,50,50,52,52],"right_children":[2,4,6,8,10,12,14,16,-1,18,20,22,24,26,28,30,32,34,36,38,40,42,-1,44,46,-1,48,50,52,54,56,58,-1,60,62,64,66,-1,68,70,-1,-1,72,-1,74,-1,76,78,80,82,84,-1,86,-1,-1,-1,-1,-1,-1,-1,-1,-1,-1,-1,-1,-1,-1,-1,-1,-1,-1,-1,-1,-1,-1,-1,-1,-1,-1,-1,-1,-1,-1,-1,-1,-1,-1],"split_conditions":[1.28E2,2.9E1,3E1,4.54E1,1.42E2,1.46E2,4.34E-1,3E0,8.338763E-2,1.4E1,3.31E1,2.89E1,1.4E1,1.3E2,3.26E2,3.7E1,4.1E1,1.23E2,5.03E-1,4.51E-1,1.23E2,3E0,7.2710246E-2,1.79E-1,2.5E1,-8.915624E-2,3.43E1,4E1,1.54E2,3.3E1,6.73E-1,9.55E-1,1.3603178E-1,2.67E1,2.1E1,1E1,9.7E1,-6.913348E-2,2.9E1,8.01E-1,-5.2867845E-2,-5.9913445E-2,4.08E-1,1.0784381E-1,2.4E1,-3.8249515E-2,7.33E-1,3.07E1,4.7E1,1.65E2,4.09E1,-7.114552E-2,1.88E2,-4.5302562E-2,8.712537E-2,-6.2012736E-2,-2.9965412E-2,-3.563206E-2,1.0202383E-1,-4.450338E-2,1.0708931E-2,1.110071E-1,-5.6246232E-2,-9.3070276E-2,-1.5060809E-2,-7.371171E-2,6.518487E-2,1.0837087E-1,-2.624514E-2,1.5179048E-1,-1.7453765E-2,1.7113838E-2,-5.5456836E-2,8.0114804E-2,-5.1692728E-2,1.1376914E-1,-5.947456E-2,1.122706E-1,-1.8378614E-2,7.382344E-2,-5.9514288E-2,1.2859067E-1,7.948054E-2,-3.7611857E-2,8.2629904E-2,8.5603505E-2,-3.2631516E-2],"split_indices":[1,7,5,5,4,1,6,0,0,4,5,5,4,1,4,4,3,1,6,6,1,0,0,6,7,0,5,5,1,3,6,6,0,5,3,0,1,0,3,6,0,0,6,0,2,0,6,5,3,1,5,0,1,0,0,0,0,0,0,0,0,0,0,0,0,0,0,0,0,0,0,0,0,0,0,0,0,0,0,0,0,0,0,0,0,0,0],"split_type":[0,0,0,0,0,0,0,0,0,0,0,0,0,0,0,0,0,0,0,0,0,0,0,0,0,0,0,0,0,0,0,0,0,0,0,0,0,0,0,0,0,0,0,0,0,0,0,0,0,0,0,0,0,0,0,0,0,0,0,0,0,0,0,0,0,0,0,0,0,0,0,0,0,0,0,0,0,0,0,0,0,0,0,0,0,0,0],"sum_hessian":[6.14E2,3.8E2,2.34E2,2.12E2,1.68E2,6.7E1,1.67E2,2.1E2,2E0,1.47E2,2.1E1,3.7E1,3E1,8.5E1,8.2E1,1.58E2,5.2E1,1.09E2,3.8E1,8E0,1.3E1,3.6E1,1E0,1.8E1,1.2E1,5E0,8E1,7.3E1,9E0,6E1,9.8E1,5E1,2E0,9.8E1,1.1E1,2.3E1,1.5E1,4E0,4E0,1.2E1,1E0,1.7E1,1.9E1,3E0,1.5E1,2E0,1E1,3.5E1,4.5E1,4.5E1,2.8E1,4E0,5E0,5.7E1,3E0,7.7E1,2.1E1,4.9E1,1E0,2.6E1,7.2E1,9E0,2E0,1.9E1,4E0,9E0,6E0,3E0,1E0,1E1,2E0,1.1E1,8E0,2E0,1.3E1,9E0,1E0,6E0,2.9E1,4.4E1,1E0,3E1,1.5E1,7E0,2.1E1,4E0,1E0],"tree_param":{"num_deleted":"0","num_feature":"8","num_nodes":"87","size_leaf_vector":"1"}},{"base_weights":[2.7689084E-3,-5.354555E-2,9.405844E-2,-9.2496656E-2,1.4207525E-3,-1.0994939E-2,1.3602017E-1,-9.635229E-2,6.671011E-2,-1.0167925E-1,3.8105324E-2,-5.787688E-2,2.0026669E-2,7.897481E-2,1.9348863E-1,-1.1055896E-1,-2.5026526E-2,8.5947566E-2,-1.282501E-1,6.882067E-2,-9.905348E-2,-1.0043106E-1,6.337433E-2,-2.2289059E-1,1.00360215E-1,2.1704504E-1,-1.7774552E-4,-8.1193246E-2,-1.3550036E-1,-1.0754191E-1,1.0866653E-1,-1.7496882E-1,1.1699089E-1,-9.780803E-2,1.1900253E-1,-1.8446328E-1,2.2823246E-1,-3.895922E-2,5.115959E-2,1.8341818E-1,-2.6787493E-2,-2.9336981E-2,-7.829803E-2,1.780951E-2,1.6278337E-1,2.7123338E-1,1.2360682E-1,-1.8023528E-1,1.4989983E-1,-3.1455327E-2,3.3437178E-2,-4.2622533E-2,1.6357418E-2,1.2546098E-1,-4.4574946E-2,7.488421E-2,-6.69454E-2,-6.004426E-2,1.9172492E-2,-4.496638E-2,1.06386594E-1,6.921623E-2,-3.696854E-2,6.566729E-2,-4.4283755E-3,-8.935633E-3,-1.00749485E-1,-5.601605E-2,1.135952E-1,6.897869E-2,-4.2384677E-2,5.8690704E-2,-2.6718415E-2,-2.309222E-2,7.206731E-2,1.0521553E-1,3.60176E-2,9.44211E-2,5.968255E-2,7.945462E-2,-2.3115792E-3,-6.1114438E-2,-1.2947598E-2,6.5058656E-2,-2.7736787E-2],"categories":[],"categories_nodes":[],"categories_segments":[],"categories_sizes":[],"default_left":[0,0,0,0,0,0,0,0,0,0,0,0,0,0,0,0,0,0,0,0,0,0,0,0,0,0,0,0,0,0,0,0,0,0,0,0,0,0,0,0,0,0,0,0,0,0,0,0,0,0,0,0,0,0,0,0,0,0,0,0,0,0,0,0,0,0,0,0,0,0,0,0,0,0,0,0,0,0,0,0,0,0,0,0,0],"id":3,"left_children":[1,3,5,7,9,11,13,15,-1,17,19,-1,21,23,25,27,29,-1,31,33,35,37,39,41,43,45,47,49,51,53,55,57,59,61,63,65,67,-1,-1,69,71,-1,-1,73,75,77,79,81,83,-1,-1,-1,-1,-1,-1,-1,-1,-1,-1,-1,-1,-1,-1,-1,-1,-1,-1,-1,-1,-1,-1,-1,-1,-1,-1,-1,-1,-1,-1,-1,-1,-1,-1,-1,-1],"loss_changes":[3.1667025E0,8.158518E-1,1.0374279E0,2.9214704E-1,6.05241E-1,3.8763514E-1,5.35475E-1,2.2117257E-1,0E0,4.699322E-1,5.0393677E-1,0E0,3.1443685E-1,5.7754356E-1,3.786919E-1,1.237638E-1,4.308921E-1,0E0,4.7876358E-1,8.227279E-1,6.570759E-1,1.4975005E-1,4.8114163E-1,3.0775964E-3,4.1450006E-1,3.4115458E-1,2.972432E-1,4.0820593E-1,1.3018453E-1,5.799916E-1,7.572352E-1,2.172879E-1,4.9708444E-1,2.205123E-1,1.00534E0,4.1143686E-1,3.8278386E-1,0E0,0E0,3.194242E-1,3.7755358E-1,0E0,0E0,7.77417E-1,3.272488E-1,8.2052946E-2,5.39897E-1,7.300392E-3,1.1742245E-1,0E0,0E0,0E0,0E0,0E0,0E0,0E0,0E0,0E0,0E0,0E0,0E0,0E0,0E0,0E0,0E0,0E0,0E0,0E0,0E0,0E0,0E0,0E0,0E0,0E0,0E0,0E0,0E0,0E0,0E0,0E0,0E0,0E0,0E0,0E0,0E0],"parents":[2147483647,0,0,1,1,2,2,3,3,4,4,5,5,6,6,7,7,9,9,10,10,12,12,13,13,14,14,15,15,16,16,18,18,19,19,20,20,21,21,22,22,23,23,24,24,25,25,26,26,27,27,28,28,29,29,30,30,31,31,32,32,33,33,34,34,35,35,36,36,39,39,40,40,43,43,44,44,45,45,46,46,47,47,48,48],"right_children":[2,4,6,8,10,12,14,16,-1,18,20,-1,22,24,26,28,30,-1,32,34,36,38,40,42,44,46,48,50,52,54,56,58,60,62,64,66,68,-1,-1,70,72,-1,-1,74,76,78,80,82,84,-1,-1,-1,-1,-1,-1,-1,-1,-1,-1,-1,-1,-1,-1,-1,-1,-1,-1,-1,-1,-1,-1,-1,-1,-1,-1,-1,-1,-1,-1,-1,-1,-1,-1,-1,-1],"split_conditions":[1.28E2,3E1,3E1,4.54E1,9.5E1,2.32E1,4.34E-1,6.73E-1,6.671011E-2,4.4E1,8.5E1,-5.787688E-2,2E0,1.3E2,3.26E2,3.7E1,3E1,8.5947566E-2,7.85E-1,2.7E1,4.28E1,2.8E1,2.67E1,2.5E1,3.43E1,4E1,1.54E2,3.59E1,5E0,6.8E-1,3.81E1,1.2E1,2E0,1.82E1,2.9E1,3.46E1,1E0,-3.895922E-2,5.115959E-2,6.73E-1,4E0,-2.9336981E-2,-7.829803E-2,1.32E2,7E1,1.56E2,7.8E1,1.51E2,1.88E2,-3.1455327E-2,3.3437178E-2,-4.2622533E-2,1.6357418E-2,1.2546098E-1,-4.4574946E-2,7.488421E-2,-6.69454E-2,-6.004426E-2,1.9172492E-2,-4.496638E-2,1.06386594E-1,6.921623E-2,-3.696854E-2,6.566729E-2,-4.4283755E-3,-8.935633E-3,-1.00749485E-1,-5.601605E-2,1.135952E-1,6.897869E-2,-4.2384677E-2,5.8690704E-2,-2.6718415E-2,-2.309222E-2,7.206731E-2,1.0521553E-1,3.60176E-2,9.44211E-2,5.968255E-2,7.945462E-2,-2.3115792E-3,-6.1114438E-2,-1.2947598E-2,6.5058656E-2,-2.7736787E-2],"split_indices":[1,7,5,5,1,5,6,6,0,1,2,0,0,1,4,4,3,0,6,5,5,3,5,7,5,5,1,5,0,6,5,0,0,5,3,5,0,0,0,6,0,0,0,4,2,1,2,1,1,0,0,0,0,0,0,0,0,0,0,0,0,0,0,0,0,0,0,0,0,0,0,0,0,0,0,0,0,0,0,0,0,0,0,0,0],"split_type":[0,0,0,0,0,0,0,0,0,0,0,0,0,0,0,0,0,0,0,0,0,0,0,0,0,0,0,0,0,0,0,0,0,0,0,0,0,0,0,0,0,0,0,0,0,0,0,0,0,0,0,0,0,0,0,0,0,0,0,0,0,0,0,0,0,0,0,0,0,0,0,0,0,0,0,0,0,0,0,0,0,0,0,0,0],"sum_hessian":[6.14E2,3.8E2,2.34E2,2.22E2,1.58E2,6.7E1,1.67E2,2.2E2,2E0,4.1E1,1.17E2,9E0,5.8E1,8.5E1,8.2E1,1.83E2,3.7E1,2E0,3.9E1,9.6E1,2.1E1,1.5E1,4.3E1,5E0,8E1,7.3E1,9E0,8.6E1,9.7E1,2.3E1,1.4E1,3.3E1,6E0,2.2E1,7.4E1,1.7E1,4E0,1.4E1,1E0,1.8E1,2.5E1,2E0,3E0,3.5E1,4.5E1,4.5E1,2.8E1,4E0,5E0,7.7E1,9E0,9.4E1,3E0,1E0,2.2E1,1E1,4E0,3E1,3E0,3E0,3E0,1E0,2.1E1,4.2E1,3.2E1,9E0,8E0,1E0,3E0,1.6E1,2E0,5E0,2E1,2.5E1,1E1,7E0,3.8E1,2.6E1,1.9E1,1.3E1,1.5E1,3E0,1E0,4E0,1E0],"tree_param":{"num_deleted":"0","num_feature":"8","num_nodes":"85","size_leaf_vector":"1"}},{"base_weights":[2.8636009E-3,-2.0784346E-2,1.2936279E-1,-4.0415403E-2,5.700301E-2,1.4709663E-1,-8.631337E-2,-4.737156E-2,1.360145E-1,2.4400901E-2,1.0001539E-1,1.6548349E-1,2.54604E-2,-2.1222574E-1,5.828475E-2,-6.453541E-2,1.5120626E-2,2.8234679E-1,-9.2462264E-2,-1.5309635E-2,1.3037539E-1,1.7727125E-1,-5.51489E-3,1.1982186E-1,-1.4948231E-1,-1.2251692E-2,-7.150059E-2,-6.868087E-2,8.217244E-2,3.1433214E-2,-7.760774E-2,-1.43730715E-2,3.2436538E-1,2.6511608E-2,-1.3732998E-1,3.7374973E-2,-1.3195673E-1,1.6849756E-1,-6.343728E-2,1.8689506E-1,9.008432E-3,-9.3908645E-2,6.794979E-2,-3.6813468E-2,6.1994206E-2,2.5422059E-2,-6.87669E-2,-7.839345E-3,-3.1283427E-2,1.3291098E-3,6.843329E-2,1.0235884E-1,2.8457908E-2,-2.4299463E-2,-6.284834E-2,-5.301668E-2,2.1407647E-2,-5.5175446E-2,7.753148E-2,2.1300852E-2,8.351728E-2,3.5970915E-2,-6.768956E-2,6.059068E-2,1.4013213E-2,-4.4848647E-2,2.5802486E-2],"categories":[],"categories_nodes":[],"categories_segments":[],"categories_sizes":[],"default_left":[0,0,0,0,0,0,0,0,0,0,0,0,0,0,0,0,0,0,0,0,0,0,0,0,0,0,0,0,0,0,0,0,0,0,0,0,0,0,0,0,0,0,0,0,0,0,0,0,0,0,0,0,0,0,0,0,0,0,0,0,0,0,0,0,0,0,0],"id":4,"left_children":[1,3,5,7,9,11,13,15,17,19,-1,21,23,25,-1,27,29,31,33,35,37,39,41,43,45,-1,-1,47,-1,49,-1,-1,51,-1,53,55,57,59,61,63,65,-1,-1,-1,-1,-1,-1,-1,-1,-1,-1,-1,-1,-1,-1,-1,-1,-1,-1,-1,-1,-1,-1,-1,-1,-1,-1],"loss_changes":[1.842428E0,7.9484165E-1,3.8369894E-1,5.1576203E-1,9.3798053E-1,1.9707203E-1,3.2387567E-1,4.3001848E-1,5.610429E-1,4.0178484E-1,0E0,1.5820146E-1,2.3251331E-1,1.7115623E-2,0E0,4.593557E-1,3.9672574E-1,1.5430975E-1,6.8931475E-2,4.3511733E-1,2.0279163E-1,1.1652732E-1,4.9898633E-1,2.1488073E-1,1.1280969E-1,0E0,0E0,4.6833158E-1,0E0,4.397908E-1,0E0,0E0,2.399087E-3,0E0,7.4222386E-3,3.6912727E-1,4.9381194E-1,2.1594197E-1,1.7573798E-1,1.3637114E-1,7.388174E-2,0E0,0E0,0E0,0E0,0E0,0E0,0E0,0E0,0E0,0E0,0E0,0E0,0E0,0E0,0E0,0E0,0E0,0E0,0E0,0E0,0E0,0E0,0E0,0E0,0E0,0E0],"parents":[2147483647,0,0,1,1,2,2,3,3,4,4,5,5,6,6,7,7,8,8,9,9,11,11,12,12,13,13,15,15,16,16,17,17,18,18,19,19,20,20,21,21,22,22,23,23,24,24,27,27,29,29,32,32,34,34,35,35,36,36,37,37,38,38,39,39,40,40],"right_children":[2,4,6,8,10,12,14,16,18,20,-1,22,24,26,-1,28,30,32,34,36,38,40,42,44,46,-1,-1,48,-1,50,-1,-1,52,-1,54,56,58,60,62,64,66,-1,-1,-1,-1,-1,-1,-1,-1,-1,-1,-1,-1,-1,-1,-1,-1,-1,-1,-1,-1,-1,-1,-1,-1,-1,-1],"split_conditions":[1.55E2,7E0,6E1,1.182E0,4.07E1,3.3E2,3.43E1,3.5E1,1.461E0,1.14E2,1.0001539E-1,4.3E1,3.58E1,1E0,5.828475E-2,4.79E1,1.5E2,2.52E1,4.4E1,3.31E1,1.49E2,9.2E1,4.4E1,1.7E1,7E1,-1.2251692E-2,-7.150059E-2,6.6E1,8.217244E-2,1.44E2,-7.760774E-2,-1.43730715E-2,8.4E1,2.6511608E-2,1.28E2,8.4E1,1.41E2,7.8E1,3.5E1,1E1,9.5E1,-9.3908645E-2,6.794979E-2,-3.6813468E-2,6.1994206E-2,2.5422059E-2,-6.87669E-2,-7.839345E-3,-3.1283427E-2,1.3291098E-3,6.843329E-2,1.0235884E-1,2.8457908E-2,-2.4299463E-2,-6.284834E-2,-5.301668E-2,2.1407647E-2,-5.5175446E-2,7.753148E-2,2.1300852E-2,8.351728E-2,3.5970915E-2,-6.768956E-2,6.059068E-2,1.4013213E-2,-4.4848647E-2,2.5802486E-2],"split_indices":[1,0,7,6,5,4,5,7,6,4,0,3,5,0,0,5,1,5,2,5,1,2,3,3,2,0,0,2,0,1,0,0,2,0,1,1,1,2,3,0,2,0,0,0,0,0,0,0,0,0,0,0,0,0,0,0,0,0,0,0,0,0,0,0,0,0,0],"split_type":[0,0,0,0,0,0,0,0,0,0,0,0,0,0,0,0,0,0,0,0,0,0,0,0,0,0,0,0,0,0,0,0,0,0,0,0,0,0,0,0,0,0,0,0,0,0,0,0,0,0,0,0,0,0,0,0,0,0,0,0,0,0,0,0,0,0,0],"sum_hessian":[6.14E2,5.18E2,9.6E1,4.14E2,1.04E2,8.9E1,7E0,3.99E2,1.5E1,9.4E1,1E1,7.7E1,1.2E1,5E0,2E0,3.13E2,8.6E1,9E0,6E0,6.9E1,2.5E1,7.2E1,5E0,8E0,4E0,1E0,4E0,3.1E2,3E0,8.2E1,4E0,1E0,8E0,1E0,5E0,4.8E1,2.1E1,2.1E1,4E0,6.8E1,4E0,2E0,3E0,2E0,6E0,1E0,3E0,1.42E2,1.68E2,7.3E1,9E0,7E0,1E0,4E0,1E0,6E0,4.2E1,1.9E1,2E0,1.2E1,9E0,2E0,2E0,6.1E1,7E0,1E0,3E0],"tree_param":{"num_deleted":"0","num_feature":"8","num_nodes":"67","size_leaf_vector":"1"}},{"base_weights":[2.396131E-3,-5.153018E-2,3.0688165E-2,-6.2761694E-2,1.0016115E-1,1.4783999E-2,1.1494804E-1,-7.509928E-2,2.5618397E-2,-2.6425183E-2,2.9444486E-1,-2.7912448E-3,9.238255E-2,1.2984356E-1,-2.4893178E-2,-8.969199E-2,-2.5574345E-2,1.5417413E-1,-1.0490798E-1,-1.0830652E-1,6.0220033E-2,-1.5587184E-2,1.1223502E-1,3.0301176E-2,-4.206669E-2,-2.8811494E-2,1.4537115E-1,7.251352E-2,1.0974967E-1,-7.02129E-2,1.05575345E-1,-8.156578E-2,-1.9349317E-1,-1.3847433E-1,6.016624E-2,3.1217545E-1,1.6401377E-2,-1.5204123E-1,1.02883235E-1,-1.588921E-2,-4.51224E-2,-6.088817E-2,5.7092074E-2,-6.566668E-2,1.4009775E-1,3.4492724E-2,-8.719546E-2,2.7225804E-1,7.035179E-2,-1.0272186E-1,1.2564091E-1,-2.6286034E-2,5.2733775E-2,-3.253274E-2,-1.8170118E-2,-2.0886E-2,-7.314793E-2,-4.6087112E-2,-1.411368E-2,-3.9220683E-2,5.502692E-2,1.1614682E-1,-9.40912E-3,-4.6389002E-2,4.4983864E-2,-2.6884533E-2,-5.2473344E-2,6.365587E-2,-1.735841E-2,-2.9585557E-2,2.3633728E-2,5.6236297E-2,9.5257E-3,-6.800208E-3,-3.9328583E-2,6.371992E-2,-3.3549786E-2,8.8613555E-2,-1.2752951E-2,-3.8435683E-2,9.224734E-2,-1.1768009E-2,5.7167765E-2,4.0916994E-2,-2.6467307E-2],"categories":[],"categories_nodes":[],"categories_segments":[],"categories_sizes":[],"default_left":[0,0,0,0,0,0,0,0,0,0,0,0,0,0,0,0,0,0,0,0,0,0,0,0,0,0,0,0,0,0,0,0,0,0,0,0,0,0,0,0,0,0,0,0,0,0,0,0,0,0,0,0,0,0,0,0,0,0,0,0,0,0,0,0,0,0,0,0,0,0,0,0,0,0,0,0,0,0,0,0,0,0,0,0,0],"id":5,"left_children":[1,3,5,7,9,11,13,15,17,19,21,23,25,27,29,31,33,35,37,39,-1,-1,-1,41,43,45,47,-1,49,-1,51,53,55,57,59,61,63,65,67,-1,-1,69,71,73,75,77,-1,79,81,-1,83,-1,-1,-1,-1,-1,-1,-1,-1,-1,-1,-1,-1,-1,-1,-1,-1,-1,-1,-1,-1,-1,-1,-1,-1,-1,-1,-1,-1,-1,-1,-1,-1,-1,-1],"loss_changes":[9.398776E-1,3.6747563E-1,5.3969413E-1,2.1782255E-1,3.7668568E-1,4.6531826E-1,1.3654476E-1,1.2345654E-1,4.35672E-1,2.0774125E-1,1.8502915E-1,3.638964E-1,4.087683E-1,1.0384858E-1,2.1572144E-1,9.724784E-2,4.05216E-1,2.778675E-1,1.4296286E-1,1.0673791E-2,0E0,0E0,0E0,3.7481898E-1,5.594821E-1,3.4153694E-1,3.9968097E-1,0E0,4.0947145E-1,0E0,8.321716E-2,6.454331E-2,3.91393E-2,1.7704278E-2,5.886988E-1,1.6669524E-1,2.0590903E-1,2.9802322E-5,6.4986974E-2,0E0,0E0,1.922084E-1,3.838427E-1,3.1775433E-1,2.9697916E-1,3.540673E-1,0E0,2.6509964E-1,3.8946727E-1,0E0,1.2697542E-1,0E0,0E0,0E0,0E0,0E0,0E0,0E0,0E0,0E0,0E0,0E0,0E0,0E0,0E0,0E0,0E0,0E0,0E0,0E0,0E0,0E0,0E0,0E0,0E0,0E0,0E0,0E0,0E0,0E0,0E0,0E0,0E0,0E0,0E0],"parents":[2147483647,0,0,1,1,2,2,3,3,4,4,5,5,6,6,7,7,8,8,9,9,10,10,11,11,12,12,13,13,14,14,15,15,16,16,17,17,18,18,19,19,23,23,24,24,25,25,26,26,28,28,30,30,31,31,32,32,33,33,34,34,35,35,36,36,37,37,38,38,41,41,42,42,43,43,44,44,45,45,47,47,48,48,50,50],"right_children":[2,4,6,8,10,12,14,16,18,20,22,24,26,28,30,32,34,36,38,40,-1,-1,-1,42,44,46,48,-1,50,-1,52,54,56,58,60,62,64,66,68,-1,-1,70,72,74,76,78,-1,80,82,-1,84,-1,-1,-1,-1,-1,-1,-1,-1,-1,-1,-1,-1,-1,-1,-1,-1,-1,-1,-1,-1,-1,-1,-1,-1,-1,-1,-1,-1,-1,-1,-1,-1,-1,-1],"split_conditions":[1.07E2,1.6E2,1.67E2,8.2E1,6.27E-1,8E0,9.4E1,3.1E1,8.8E1,7.8E1,6.1E1,7.4E1,2.79E1,2E-1,9.6E1,4.3E1,2E0,4E0,8E0,2.6E1,6.0220033E-2,-1.5587184E-2,1.1223502E-1,2.3E1,4.54E1,2.76E1,3.31E1,7.251352E-2,2.01E-1,-7.02129E-2,2.86E1,6.4E1,2.43E1,7.8E1,2.26E-1,1.22E2,6E0,3E1,9E0,-1.588921E-2,-4.51224E-2,3.33E1,1E0,3.46E1,1.63E2,2.34E-1,-8.719546E-2,1.65E-1,4.2E1,-1.0272186E-1,4.46E1,-2.6286034E-2,5.2733775E-2,-3.253274E-2,-1.8170118E-2,-2.0886E-2,-7.314793E-2,-4.6087112E-2,-1.411368E-2,-3.9220683E-2,5.502692E-2,1.1614682E-1,-9.40912E-3,-4.6389002E-2,4.4983864E-2,-2.6884533E-2,-5.2473344E-2,6.365587E-2,-1.735841E-2,-2.9585557E-2,2.3633728E-2,5.6236297E-2,9.5257E-3,-6.800208E-3,-3.9328583E-2,6.371992E-2,-3.3549786E-2,8.8613555E-2,-1.2752951E-2,-3.8435683E-2,9.224734E-2,-1.1768009E-2,5.7167765E-2,4.0916994E-2,-2.6467307E-2],"split_indices":[1,4,1,2,6,0,2,3,2,2,2,2,5,6,2,7,0,0,0,7,0,0,0,7,5,5,5,0,6,0,5,2,5,2,6,4,0,7,0,0,0,5,0,5,1,6,0,6,7,0,5,0,0,0,0,0,0,0,0,0,0,0,0,0,0,0,0,0,0,0,0,0,0,0,0,0,0,0,0,0,0,0,0,0,0],"split_type":[0,0,0,0,0,0,0,0,0,0,0,0,0,0,0,0,0,0,0,0,0,0,0,0,0,0,0,0,0,0,0,0,0,0,0,0,0,0,0,0,0,0,0,0,0,0,0,0,0,0,0,0,0,0,0,0,0,0,0,0,0,0,0,0,0,0,0,0,0,0,0,0,0,0,0,0,0,0,0,0,0,0,0,0,0],"sum_hessian":[6.14E2,2.11E2,4.03E2,1.97E2,1.4E1,3.4E2,6.3E1,1.73E2,2.4E1,9E0,5E0,2.78E2,6.2E1,5.7E1,6E0,1.33E2,4E1,1.2E1,1.2E1,7E0,2E0,1E0,4E0,1.51E2,1.27E2,1.9E1,4.3E1,7E0,5E1,2E0,4E0,1.25E2,8E0,1.7E1,2.3E1,5E0,7E0,1E1,2E0,4E0,3E0,3.4E1,1.17E2,1.13E2,1.4E1,1.6E1,3E0,1.5E1,2.8E1,1E0,4.9E1,1E0,3E0,5.3E1,7.2E1,3E0,5E0,1.4E1,3E0,9E0,1.4E1,4E0,1E0,3E0,4E0,4E0,6E0,1E0,1E0,2.7E1,7E0,1.8E1,9.9E1,6.9E1,4.4E1,1.1E1,3E0,3E0,1.3E1,1E0,1.4E1,1.5E1,1.3E1,4.7E1,2E0],"tree_param":{"num_deleted":"0","num_feature":"8","num_nodes":"85","size_leaf_vector":"1"}},{"base_weights":[1.7605454E-3,-3.6170192E-2,2.1660436E-2,-5.093979E-2,3.0652372E-2,-2.7493613E-2,3.7919972E-2,-6.2354E-2,8.281391E-3,-5.221509E-3,2.7563906E-1,-1.6490841E-2,-1.989557E-1,2.3308268E-2,1.0513511E-1,-5.561977E-2,-1.5868394E-1,1.01032354E-1,-1.5478167E-2,-3.1181328E-2,2.0376243E-1,9.208198E-2,2.2565344E-2,-3.9970707E-2,4.4993658E-2,-1.771395E-2,-6.453848E-2,4.9160507E-2,-1.8242301E-2,2.1734557E-1,7.469307E-2,-3.348699E-2,-7.925725E-2,-1.614045E-2,-5.428933E-2,-4.3678734E-2,1.2298019E-1,-6.0828794E-2,6.5364674E-2,9.033771E-2,-1.3249106E-2,2.0236962E-1,-5.0074387E-2,2.2396027E-1,4.1316273E-3,1.4790279E-1,3.4826312E-3,-7.868166E-2,4.5095414E-2,-1.8353058E-2,2.5131547E-1,-6.532506E-2,9.3803465E-2,-1.2892995E-2,4.2286143E-2,-1.3300328E-2,-3.449319E-2,-2.198961E-2,3.682373E-2,9.498733E-2,-3.3497237E-2,-2.314552E-2,4.963826E-2,-8.925176E-3,7.014209E-2,1.0638889E-1,-1.5322556E-2,-2.2275118E-2,2.068035E-2,-2.1299986E-2,9.46351E-2,4.8476722E-2,-2.7185487E-2,7.217491E-2,-1.2211803E-2,-2.5136968E-2,1.4121157E-2,-3.4987584E-2,3.2139286E-2,6.205411E-2,5.118933E-3,8.183509E-2,3.308859E-2,-5.8600786E-3,3.631366E-2],"categories":[],"categories_nodes":[],"categories_segments":[],"categories_sizes":[],"default_left":[0,0,0,0,0,0,0,0,0,0,0,0,0,0,0,0,0,0,0,0,0,0,0,0,0,0,0,0,0,0,0,0,0,0,0,0,0,0,0,0,0,0,0,0,0,0,0,0,0,0,0,0,0,0,0,0,0,0,0,0,0,0,0,0,0,0,0,0,0,0,0,0,0,0,0,0,0,0,0,0,0,0,0,0,0],"id":6,"left_children":[1,3,5,7,9,11,13,15,17,19,21,23,25,27,29,31,33,-1,35,37,39,-1,-1,41,43,-1,-1,45,47,49,51,53,55,-1,-1,57,59,61,63,-1,-1,65,67,69,71,73,75,77,79,-1,81,-1,83,-1,-1,-1,-1,-1,-1,-1,-1,-1,-1,-1,-1,-1,-1,-1,-1,-1,-1,-1,-1,-1,-1,-1,-1,-1,-1,-1,-1,-1,-1,-1,-1],"loss_changes":[4.6499628E-1,2.1079323E-1,3.2392818E-1,1.1813393E-1,3.4419557E-1,1.8726146E-1,2.961164E-1,8.5885346E-2,2.3155332E-1,1.9623506E-1,8.279443E-3,1.4038861E-1,8.735508E-4,2.705148E-1,1.6822517E-1,6.954241E-2,1.12953335E-2,0E0,1.1470053E-1,9.557107E-2,1.09854385E-1,0E0,0E0,1.8153057E-1,1.9652404E-1,0E0,0E0,6.985873E-1,3.7487298E-1,1.1944997E-1,2.6632887E-1,1.2690075E-1,7.723391E-2,0E0,0E0,1.2730482E-1,2.6253462E-1,1.0510839E-1,1.3512735E-1,0E0,0E0,1.338813E-1,2.0076522E-1,1.5732655E-1,3.5778174E-1,8.66328E-1,4.1097474E-1,3.6501428E-1,2.141155E-1,0E0,1.8763542E-4,0E0,1.3204089E-1,0E0,0E0,0E0,0E0,0E0,0E0,0E0,0E0,0E0,0E0,0E0,0E0,0E0,0E0,0E0,0E0,0E0,0E0,0E0,0E0,0E0,0E0,0E0,0E0,0E0,0E0,0E0,0E0,0E0,0E0,0E0,0E0],"parents":[2147483647,0,0,1,1,2,2,3,3,4,4,5,5,6,6,7,7,8,8,9,9,10,10,11,11,12,12,13,13,14,14,15,15,16,16,18,18,19,19,20,20,23,23,24,24,27,27,28,28,29,29,30,30,31,31,32,32,35,35,36,36,37,37,38,38,41,41,42,42,43,43,44,44,45,45,46,46,47,47,48,48,50,50,52,52],"right_children":[2,4,6,8,10,12,14,16,18,20,22,24,26,28,30,32,34,-1,36,38,40,-1,-1,42,44,-1,-1,46,48,50,52,54,56,-1,-1,58,60,62,64,-1,-1,66,68,70,72,74,76,78,80,-1,82,-1,84,-1,-1,-1,-1,-1,-1,-1,-1,-1,-1,-1,-1,-1,-1,-1,-1,-1,-1,-1,-1,-1,-1,-1,-1,-1,-1,-1,-1,-1,-1,-1,-1],"split_conditions":[1.07E2,6.61E-1,2.79E1,3.74E1,8E0,2.77E1,8E0,4.8E1,3.75E1,1.55E2,1.1E1,2.64E1,6E1,7.8E1,1.21E2,3E-1,2.43E1,1.01032354E-1,4E1,4E0,3E0,9.208198E-2,2.2565344E-2,1.08E2,1.15E2,-1.771395E-2,-6.453848E-2,1.3E1,1.39E2,1.36E-1,1.25E2,2.95E-1,2.92E1,-1.614045E-2,-5.428933E-2,4.2E1,4.6E1,1.04E2,2.9E1,9.033771E-2,-1.3249106E-2,4E0,1.52E2,1E0,3E1,3.85E-1,2.8E1,4.28E1,2.3E1,-1.8353058E-2,4.6E1,-6.532506E-2,3.8E1,-1.2892995E-2,4.2286143E-2,-1.3300328E-2,-3.449319E-2,-2.198961E-2,3.682373E-2,9.498733E-2,-3.3497237E-2,-2.314552E-2,4.963826E-2,-8.925176E-3,7.014209E-2,1.0638889E-1,-1.5322556E-2,-2.2275118E-2,2.068035E-2,-2.1299986E-2,9.46351E-2,4.8476722E-2,-2.7185487E-2,7.217491E-2,-1.2211803E-2,-2.5136968E-2,1.4121157E-2,-3.4987584E-2,3.2139286E-2,6.205411E-2,5.118933E-3,8.183509E-2,3.308859E-2,-5.8600786E-3,3.631366E-2],"split_indices":[1,6,5,5,0,5,0,7,5,4,0,5,2,2,1,6,5,0,7,0,0,0,0,1,1,0,0,3,1,6,1,6,5,0,0,3,7,1,3,0,0,0,1,0,7,6,3,5,7,0,7,0,7,0,0,0,0,0,0,0,0,0,0,0,0,0,0,0,0,0,0,0,0,0,0,0,0,0,0,0,0,0,0,0,0],"split_type":[0,0,0,0,0,0,0,0,0,0,0,0,0,0,0,0,0,0,0,0,0,0,0,0,0,0,0,0,0,0,0,0,0,0,0,0,0,0,0,0,0,0,0,0,0,0,0,0,0,0,0,0,0,0,0,0,0,0,0,0,0,0,0,0,0,0,0,0,0,0,0,0,0,0,0,0,0,0,0,0,0,0,0,0,0],"sum_hessian":[6.14E2,2.11E2,4.03E2,1.73E2,3.8E1,1E2,3.03E2,1.45E2,2.8E1,3.4E1,4E0,9.5E1,5E0,2.5E2,5.3E1,1.37E2,8E0,1E0,2.7E1,3.1E1,3E0,3E0,1E0,6.9E1,2.6E1,1E0,4E0,1.54E2,9.6E1,1E1,4.3E1,7.2E1,6.5E1,2E0,6E0,2.3E1,4E0,2.4E1,7E0,2E0,1E0,2E0,6.7E1,4E0,2.2E1,4.8E1,1.06E2,4.9E1,4.7E1,1E0,9E0,2E0,4.1E1,6.9E1,3E0,3.4E1,3.1E1,2E1,3E0,2E0,2E0,2.3E1,1E0,5E0,2E0,1E0,1E0,5.6E1,1.1E1,1E0,3E0,8E0,1.4E1,3.2E1,1.6E1,3.5E1,7.1E1,4.1E1,8E0,6E0,4.1E1,7E0,2E0,8E0,3.3E1],"tree_param":{"num_deleted":"0","num_feature":"8","num_nodes":"85","size_leaf_vector":"1"}},{"base_weights":[2.280819E-3,-5.1801885E-3,6.338249E-2,-2.6272575E-3,-2.0247465E-1,7.9253145E-2,-3.5005525E-2,-5.3500277E-3,1.5951823E-1,-9.982014E-2,2.4634635E-2,1.4311247E-1,4.4472642E-2,-1.6955286E-1,8.295151E-2,-9.549705E-3,9.789683E-2,2.3858214E-2,5.5877727E-2,5.8413915E-2,3.2126956E-2,6.0806934E-2,-8.6434565E-2,-2.408974E-1,1.7373795E-2,4.293084E-2,-3.2670733E-2,-8.074059E-3,-7.761057E-2,1.806082E-1,-5.9085187E-2,-8.564133E-3,1.01630226E-1,-1.8333277E-2,-8.413678E-2,-6.7662583E-3,5.651847E-3,3.566493E-3,6.766259E-2,-6.4607398E-3,-4.8289638E-2,1.0015628E-2,-8.93787E-2,3.368572E-2,-2.1516956E-2],"categories":[],"categories_nodes":[],"categories_segments":[],"categories_sizes":[],"default_left":[0,0,0,0,0,0,0,0,0,0,0,0,0,0,0,0,0,0,0,0,0,0,0,0,0,0,0,0,0,0,0,0,0,0,0,0,0,0,0,0,0,0,0,0,0],"id":7,"left_children":[1,3,5,7,9,11,13,15,17,-1,-1,19,21,23,25,27,29,-1,-1,-1,-1,31,-1,33,-1,-1,-1,35,-1,37,39,41,43,-1,-1,-1,-1,-1,-1,-1,-1,-1,-1,-1,-1],"loss_changes":[2.8069457E-1,2.759879E-1,1.0739356E-1,2.4057971E-1,2.8681585E-1,1.2245685E-1,1.7277272E-1,2.3291276E-1,4.4385344E-3,0E0,0E0,1.6323954E-2,2.293903E-1,9.50931E-2,8.48258E-2,1.8725629E-1,2.8333944E-1,0E0,0E0,0E0,0E0,1.08484685E-1,0E0,1.130943E-2,0E0,0E0,0E0,2.0034707E-1,0E0,1.0345578E-1,2.7137816E-2,1.920274E-1,5.2385494E-2,0E0,0E0,0E0,0E0,0E0,0E0,0E0,0E0,0E0,0E0,0E0,0E0],"parents":[2147483647,0,0,1,1,2,2,3,3,4,4,5,5,6,6,7,7,8,8,11,11,12,12,13,13,14,14,15,15,16,16,21,21,23,23,27,27,29,29,30,30,31,31,32,32],"right_children":[2,4,6,8,10,12,14,16,18,-1,-1,20,22,24,26,28,30,-1,-1,-1,-1,32,-1,34,-1,-1,-1,36,-1,38,40,42,44,-1,-1,-1,-1,-1,-1,-1,-1,-1,-1,-1,-1],"split_conditions":[1.66E2,1.64E2,5.8E1,4.79E1,7E0,1.76E2,1.8E2,1.182E0,7E0,-9.982014E-2,2.4634635E-2,2.59E-1,9E0,8E0,7E0,1.159E0,1.461E0,2.3858214E-2,5.5877727E-2,5.8413915E-2,3.2126956E-2,3.41E1,-8.6434565E-2,1.67E2,1.7373795E-2,4.293084E-2,-3.2670733E-2,3.5E1,-7.761057E-2,2.72E1,1.38E2,3.4E1,4.8E2,-1.8333277E-2,-8.413678E-2,-6.7662583E-3,5.651847E-3,3.566493E-3,6.766259E-2,-6.4607398E-3,-4.8289638E-2,1.0015628E-2,-8.93787E-2,3.368572E-2,-2.1516956E-2],"split_indices":[1,1,7,5,0,1,1,6,3,0,0,6,0,0,0,6,6,0,0,0,0,5,0,1,0,0,0,7,0,5,1,5,4,0,0,0,0,0,0,0,0,0,0,0,0],"split_type":[0,0,0,0,0,0,0,0,0,0,0,0,0,0,0,0,0,0,0,0,0,0,0,0,0,0,0,0,0,0,0,0,0,0,0,0,0,0,0,0,0,0,0,0,0],"sum_hessian":[6.14E2,5.48E2,6.6E1,5.42E2,6E0,5.7E1,9E0,5.34E2,8E0,4E0,2E0,1.9E1,3.8E1,4E0,5E0,5.14E2,2E1,3E0,5E0,6E0,1.3E1,3.7E1,1E0,3E0,1E0,4E0,1E0,5.12E2,2E0,1.3E1,7E0,1.4E1,2.3E1,1E0,2E0,3.33E2,1.79E2,3E0,1E1,6E0,1E0,1.3E1,1E0,2.2E1,1E0],"tree_param":{"num_deleted":"0","num_feature":"8","num_nodes":"45","size_leaf_vector":"1"}},{"base_weights":[1.2784925E-3,-4.9724325E-4,6.540531E-2,-3.4258317E-2,8.256651E-3,-2.3077207E-2,-2.2104049E-1,1.2013909E-1,3.4474316E-3,-6.52251E-2,1.6091922E-2,-2.8426068E-2,-7.578137E-2,-2.6415462E-2,2.4244878E-1,-1.6774756E-1,6.0394434E-3,-7.554321E-2,9.295516E-2,1.4154926E-1,-3.3349905E-2,-1.5664129E-2,-1.3439165E-2,-7.5400495E-3,2.7172035E-1,-7.242437E-3,-6.610851E-2,1.5275557E-1,3.7689987E-3,-1.9801404E-2,-3.94563E-2,3.2919843E-2,6.3933316E-3,-2.5706863E-2,6.3778594E-2,3.2074805E-2,-1.9707948E-2,1.5058002E-4,-6.5712635E-3,1.6755303E-2,9.561189E-2,-4.3431805E-3,5.4912183E-2,-7.307794E-2,1.6196516E-3],"categories":[],"categories_nodes":[],"categories_segments":[],"categories_sizes":[],"default_left":[0,0,0,0,0,0,0,0,0,0,0,0,0,0,0,0,0,0,0,0,0,0,0,0,0,0,0,0,0,0,0,0,0,0,0,0,0,0,0,0,0,0,0,0,0],"id":8,"left_children":[1,3,-1,5,7,9,11,13,15,17,19,-1,-1,21,23,25,27,29,31,33,35,-1,37,-1,39,-1,-1,41,43,-1,-1,-1,-1,-1,-1,-1,-1,-1,-1,-1,-1,-1,-1,-1,-1],"loss_changes":[2.368044E-1,1.8085834E-1,0E0,2.5804144E-1,2.6108652E-1,1.9915713E-1,3.9677024E-3,3.6490518E-1,2.082394E-1,1.0168515E-1,3.954996E-1,0E0,0E0,2.6459545E-3,9.298742E-2,4.757014E-2,1.5298839E-1,2.0686E-2,2.4695508E-3,3.0881673E-1,2.157098E-1,0E0,9.5509074E-4,0E0,8.362818E-2,0E0,0E0,3.8102478E-2,1.847532E-1,0E0,0E0,0E0,0E0,0E0,0E0,0E0,0E0,0E0,0E0,0E0,0E0,0E0,0E0,0E0,0E0],"parents":[2147483647,0,0,1,1,3,3,4,4,5,5,6,6,7,7,8,8,9,9,10,10,13,13,14,14,15,15,16,16,17,17,18,18,19,19,20,20,22,22,24,24,27,27,28,28],"right_children":[2,4,-1,6,8,10,12,14,16,18,20,-1,-1,22,24,26,28,30,32,34,36,-1,38,-1,40,-1,-1,42,44,-1,-1,-1,-1,-1,-1,-1,-1,-1,-1,-1,-1,-1,-1,-1,-1],"split_conditions":[1.4E1,2.19E-1,6.540531E-2,6E1,2.36E-1,2.97E1,1.33E2,2.6E1,2.38E-1,1.63E2,3.25E1,-2.8426068E-2,-7.578137E-2,5.3E1,1E0,1E0,2.44E-1,8.2E1,7E0,2.4E1,1.3E-1,-1.5664129E-2,2.1E1,-7.5400495E-3,2.29E1,-7.242437E-3,-6.610851E-2,1E0,2.45E-1,-1.9801404E-2,-3.94563E-2,3.2919843E-2,6.3933316E-3,-2.5706863E-2,6.3778594E-2,3.2074805E-2,-1.9707948E-2,1.5058002E-4,-6.5712635E-3,1.6755303E-2,9.561189E-2,-4.3431805E-3,5.4912183E-2,-7.307794E-2,1.6196516E-3],"split_indices":[0,6,0,7,6,5,1,7,6,1,5,0,0,4,0,0,6,2,0,7,6,0,3,0,5,0,0,0,6,0,0,0,0,0,0,0,0,0,0,0,0,0,0,0,0],"split_type":[0,0,0,0,0,0,0,0,0,0,0,0,0,0,0,0,0,0,0,0,0,0,0,0,0,0,0,0,0,0,0,0,0,0,0,0,0,0,0,0,0,0,0,0,0],"sum_hessian":[6.14E2,6.1E2,4E0,1.25E2,4.85E2,1.19E2,6E0,1.9E1,4.66E2,5.7E1,6.2E1,2E0,4E0,9E0,1E1,6E0,4.6E2,5.4E1,3E0,1.7E1,4.5E1,2E0,7E0,1E0,9E0,2E0,4E0,6E0,4.54E2,4.8E1,6E0,2E0,1E0,4E0,1.3E1,8E0,3.7E1,3E0,4E0,2E0,7E0,1E0,5E0,2E0,4.52E2],"tree_param":{"num_deleted":"0","num_feature":"8","num_nodes":"45","size_leaf_vector":"1"}},{"base_weights":[8.6274574E-4,-2.0227794E-2,1.1927922E-2,-2.6651775E-2,6.591729E-2,-8.372536E-3,2.6122244E-2,-2.1447536E-2,-1.1317408E-1,-6.3380147E-3,1.753566E-1,-1.3657887E-1,6.634022E-4,1.18505724E-1,9.610287E-3,-3.1608958E-2,2.5507413E-2,-4.4278093E-2,-1.4621778E-1,-5.2525725E-2,3.5682566E-2,-1.0489749E-2,2.2441424E-1,-6.250429E-2,-2.1296751E-1,1.4448934E-2,-8.028052E-2,-5.263065E-4,1.7090087E-1,-5.303749E-2,2.208331E-2,-3.823891E-2,1.238179E-3,7.203102E-2,-6.578845E-2,-8.008269E-4,-1.6203873E-2,-1.6370436E-2,-5.158921E-2,-5.8556055E-3,-2.419593E-2,7.5110435E-2,1.808982E-2,4.430814E-3,-2.704935E-2,-7.440995E-2,-1.0905749E-2,-1.7604822E-2,1.9963828E-1,6.5082097E-3,-9.8179996E-2,-6.1227236E-2,1.0007759E-1,2.3275293E-1,1.0371104E-2,-1.2210435E-1,8.376045E-2,1.9677389E-1,8.760228E-3,-9.645864E-3,-3.474403E-2,9.3700685E-2,-6.8220044E-3,3.4947187E-2,-1.3869734E-2,-2.7056513E-2,1.1242239E-2,5.014953E-3,-3.0210868E-3,5.3335026E-2,-8.402324E-3,1.595879E-2,7.34718E-2,-3.6252707E-2,1.9435428E-2,-3.499772E-2,1.3227396E-3,2.5290893E-2,8.074368E-2,-3.5944693E-2,1.3825718E-2,-7.888646E-3,-8.953771E-2,6.370215E-2,-2.121642E-3,7.821404E-3,7.5233385E-2,-1.5450527E-3,2.5057802E-2],"categories":[],"categories_nodes":[],"categories_segments":[],"categories_sizes":[],"default_left":[0,0,0,0,0,0,0,0,0,0,0,0,0,0,0,0,0,0,0,0,0,0,0,0,0,0,0,0,0,0,0,0,0,0,0,0,0,0,0,0,0,0,0,0,0,0,0,0,0,0,0,0,0,0,0,0,0,0,0,0,0,0,0,0,0,0,0,0,0,0,0,0,0,0,0,0,0,0,0,0,0,0,0,0,0,0,0,0,0],"id":9,"left_children":[1,3,5,7,9,11,13,15,17,19,21,23,25,27,29,31,33,35,37,39,-1,-1,41,43,45,47,49,51,53,55,57,59,61,63,65,-1,-1,-1,-1,-1,-1,-1,-1,67,-1,-1,-1,69,71,73,-1,75,-1,77,79,81,83,85,87,-1,-1,-1,-1,-1,-1,-1,-1,-1,-1,-1,-1,-1,-1,-1,-1,-1,-1,-1,-1,-1,-1,-1,-1,-1,-1,-1,-1,-1,-1],"loss_changes":[1.4376417E-1,1.1907644E-1,1.16631806E-1,8.672869E-2,1.1972497E-1,1.9355418E-1,3.6191395E-1,9.0506546E-2,1.8568113E-2,6.411143E-2,6.975438E-2,4.893166E-2,1.763492E-1,2.2461122E-1,1.5979692E-1,3.3802465E-2,1.4915083E-1,1.8810797E-3,7.1336925E-3,5.8529675E-3,0E0,0E0,6.2000155E-3,1.3359575E-2,2.1948949E-2,8.048765E-1,4.951489E-1,2.6380038E-1,2.4581349E-1,3.3146644E-1,3.939371E-1,5.717984E-2,2.0851049E-1,1.2631842E-1,3.3614922E-2,0E0,0E0,0E0,0E0,0E0,0E0,0E0,0E0,7.028085E-4,0E0,0E0,0E0,2.40762E-1,1.195541E-1,1.4141667E-1,0E0,4.0536158E-2,0E0,7.455498E-2,4.2718355E-2,3.807677E-1,1.4165282E-1,1.04085416E-1,1.6579369E-1,0E0,0E0,0E0,0E0,0E0,0E0,0E0,0E0,0E0,0E0,0E0,0E0,0E0,0E0,0E0,0E0,0E0,0E0,0E0,0E0,0E0,0E0,0E0,0E0,0E0,0E0,0E0,0E0,0E0,0E0],"parents":[2147483647,0,0,1,1,2,2,3,3,4,4,5,5,6,6,7,7,8,8,9,9,10,10,11,11,12,12,13,13,14,14,15,15,16,16,17,17,18,18,19,19,22,22,23,23,24,24,25,25,26,26,27,27,28,28,29,29,30,30,31,31,32,32,33,33,34,34,43,43,47,47,48,48,49,49,51,51,53,53,54,54,55,55,56,56,57,57,58,58],"right_children":[2,4,6,8,10,12,14,16,18,20,22,24,26,28,30,32,34,36,38,40,-1,-1,42,44,46,48,50,52,54,56,58,60,62,64,66,-1,-1,-1,-1,-1,-1,-1,-1,68,-1,-1,-1,70,72,74,-1,76,-1,78,80,82,84,86,88,-1,-1,-1,-1,-1,-1,-1,-1,-1,-1,-1,-1,-1,-1,-1,-1,-1,-1,-1,-1,-1,-1,-1,-1,-1,-1,-1,-1,-1,-1],"split_conditions":[1.07E2,1.6E2,3E0,1.06E2,6.27E-1,1.36E-1,6.4E1,8E1,4E0,7.8E1,6.1E1,5.7E1,4.1E1,2.07E-1,7E1,8.8E1,8.8E1,1.43E-1,2.37E1,2.6E1,3.5682566E-2,-1.0489749E-2,9E0,2.3E1,7.5E1,3E1,8.33E-1,3.54E1,1.3E2,7E0,2.6E1,3.98E1,7.9E1,3.3E1,7E0,-8.008269E-4,-1.6203873E-2,-1.6370436E-2,-5.158921E-2,-5.8556055E-3,-2.419593E-2,7.5110435E-2,1.808982E-2,2E0,-2.704935E-2,-7.440995E-2,-1.0905749E-2,2.4E1,6.6E1,5.5E1,-9.8179996E-2,1.53E-1,1.0007759E-1,2.31E-1,1.3E1,6.8E1,1.3E2,7.2E1,1.94E2,-9.645864E-3,-3.474403E-2,9.3700685E-2,-6.8220044E-3,3.4947187E-2,-1.3869734E-2,-2.7056513E-2,1.1242239E-2,5.014953E-3,-3.0210868E-3,5.3335026E-2,-8.402324E-3,1.595879E-2,7.34718E-2,-3.6252707E-2,1.9435428E-2,-3.499772E-2,1.3227396E-3,2.5290893E-2,8.074368E-2,-3.5944693E-2,1.3825718E-2,-7.888646E-3,-8.953771E-2,6.370215E-2,-2.121642E-3,7.821404E-3,7.5233385E-2,-1.5450527E-3,2.5057802E-2],"split_indices":[1,4,0,1,6,6,2,2,0,2,2,4,7,6,2,4,2,6,5,7,0,0,0,3,2,7,6,5,4,0,7,5,1,3,0,0,0,0,0,0,0,0,0,0,0,0,0,2,2,2,0,6,0,6,3,2,1,2,4,0,0,0,0,0,0,0,0,0,0,0,0,0,0,0,0,0,0,0,0,0,0,0,0,0,0,0,0,0,0],"split_type":[0,0,0,0,0,0,0,0,0,0,0,0,0,0,0,0,0,0,0,0,0,0,0,0,0,0,0,0,0,0,0,0,0,0,0,0,0,0,0,0,0,0,0,0,0,0,0,0,0,0,0,0,0,0,0,0,0,0,0,0,0,0,0,0,0,0,0,0,0,0,0,0,0,0,0,0,0,0,0,0,0,0,0,0,0,0,0,0,0],"sum_hessian":[6.14E2,2.11E2,4.03E2,1.97E2,1.4E1,1.66E2,2.37E2,1.87E2,1E1,9E0,5E0,1E1,1.56E2,3.5E1,2.02E2,1.54E2,3.3E1,4E0,6E0,7E0,2E0,1E0,4E0,6E0,4E0,1.34E2,2.2E1,1.1E1,2.4E1,3.3E1,1.69E2,1.28E2,2.6E1,2.2E1,1.1E1,1E0,3E0,2E0,4E0,4E0,3E0,3E0,1E0,2E0,4E0,3E0,1E0,1.15E2,1.9E1,1.7E1,5E0,1E1,1E0,1.7E1,7E0,2.2E1,1.1E1,1.1E1,1.58E2,1.2E2,8E0,1E0,2.5E1,1.6E1,6E0,9E0,2E0,1E0,1E0,5E0,1.1E2,5E0,1.4E1,5E0,1.2E1,5E0,5E0,4E0,1.3E1,1E0,6E0,1.5E1,7E0,4E0,7E0,3E0,8E0,1.34E2,2.4E1],"tree_param":{"num_deleted":"0","num_feature":"8","num_nodes":"89","size_leaf_vector":"1"}},{"base_weights":[8.9850044E-4,-3.568022E-4,4.6235036E-2,-2.0531542E-3,9.235814E-2,-1.0593713E-2,1.4869008E-2,4.5991763E-3,1.4184909E-1,-1.4765298E-2,6.940466E-2,1.9061355E-1,4.7228676E-3,1.5632762E-2,-4.444391E-2,3.9591193E-3,4.8327476E-2,-1.201479E-2,-1.8466952E-1,2.7663145E-2,1.0104198E-1,1.6265254E-2,2.8791752E-1,-5.091156E-3,7.3633164E-2,-1.6359251E-2,-3.6405087E-3,-8.135976E-4,-1.3296243E-2,8.216537E-3,-8.926369E-2,-1.5087548E-2,1.6031511E-2,3.5499893E-2,1.2359852E-2,1.78821E-2,-2.3565257E-2,9.5785744E-2,1.4956177E-2,4.8808055E-3,-2.165233E-2,3.3307344E-2,-9.910483E-3],"categories":[],"categories_nodes":[],"categories_segments":[],"categories_sizes":[],"default_left":[0,0,0,0,0,0,0,0,0,0,0,0,0,0,0,0,0,0,0,0,0,0,0,0,0,0,0,0,0,0,0,0,0,0,0,0,0,0,0,0,0,0,0],"id":10,"left_children":[1,3,-1,5,7,9,11,13,15,17,19,21,23,-1,25,-1,-1,27,29,31,33,35,37,39,41,-1,-1,-1,-1,-1,-1,-1,-1,-1,-1,-1,-1,-1,-1,-1,-1,-1,-1],"loss_changes":[1.1834121E-1,9.628598E-2,0E0,8.701688E-2,4.7123633E-2,1.3451278E-1,3.592918E-1,1.3966127E-2,1.5203178E-2,1.7583124E-1,2.3616664E-2,1.8192956E-1,1.3022204E-1,0E0,3.1595863E-4,0E0,0E0,1.1288148E-1,1.5176699E-1,2.2780579E-2,6.5068305E-3,2.5229655E-2,3.6355913E-2,2.4333984E-1,9.9390745E-2,0E0,0E0,0E0,0E0,0E0,0E0,0E0,0E0,0E0,0E0,0E0,0E0,0E0,0E0,0E0,0E0,0E0,0E0],"parents":[2147483647,0,0,1,1,3,3,4,4,5,5,6,6,7,7,8,8,9,9,10,10,11,11,12,12,14,14,17,17,18,18,19,19,20,20,21,21,22,22,23,23,24,24],"right_children":[2,4,-1,6,8,10,12,14,16,18,20,22,24,-1,26,-1,-1,28,30,32,34,36,38,40,42,-1,-1,-1,-1,-1,-1,-1,-1,-1,-1,-1,-1,-1,-1,-1,-1,-1,-1],"split_conditions":[1.4E1,4.83E1,4.6235036E-2,5.29E-1,3.4E1,1.81E2,5.45E-1,2.4E-1,1.23E2,1.79E2,4E0,6.4E1,9E0,1.5632762E-2,1E0,3.9591193E-3,4.8327476E-2,3.85E-1,2E0,1.6E1,3.29E-1,3.6E1,7E0,3.9E1,9.32E-1,-1.6359251E-2,-3.6405087E-3,-8.135976E-4,-1.3296243E-2,8.216537E-3,-8.926369E-2,-1.5087548E-2,1.6031511E-2,3.5499893E-2,1.2359852E-2,1.78821E-2,-2.3565257E-2,9.5785744E-2,1.4956177E-2,4.8808055E-3,-2.165233E-2,3.3307344E-2,-9.910483E-3],"split_indices":[0,5,0,6,3,1,6,6,1,1,0,2,0,0,0,0,0,6,0,3,6,3,0,7,6,0,0,0,0,0,0,0,0,0,0,0,0,0,0,0,0,0,0],"split_type":[0,0,0,0,0,0,0,0,0,0,0,0,0,0,0,0,0,0,0,0,0,0,0,0,0,0,0,0,0,0,0,0,0,0,0,0,0,0,0,0,0,0,0],"sum_hessian":[6.14E2,6.1E2,4E0,6E2,1E1,3.99E2,2.01E2,4E0,6E0,3.8E2,1.9E1,1E1,1.91E2,2E0,2E0,1E0,5E0,3.75E2,5E0,9E0,1E1,4E0,6E0,1.68E2,2.3E1,1E0,1E0,2.92E2,8.3E1,2E0,3E0,2E0,7E0,7E0,3E0,3E0,1E0,5E0,1E0,1.28E2,4E1,1.7E1,6E0],"tree_param":{"num_deleted":"0","num_feature":"8","num_nodes":"43","size_leaf_vector":"1"}},{"base_weights":[8.882795E-4,-6.656129E-2,2.9170488E-3,-8.9419864E-2,4.8305184E-2,1.3528363E-1,1.1203486E-3,-4.1914385E-2,-1.2698981E-1,-3.3627547E-2,7.300676E-2,-2.0469774E-2,7.253072E-3,-1.03502795E-2,-1.9528687E-2,-1.4651749E-1,4.3847505E-3,-2.4475833E-2,1.6537223E-2,-2.6041586E-2,4.955332E-2,5.053656E-4,3.7095807E-2,-6.6214695E-4,-4.512993E-3,-2.345901E-3,-1.6521437E-1,-1.3268108E-2,-6.310993E-2,1.1482171E-1,-7.7054694E-2,-5.4121474E-3,4.3203387E-2,2.0051056E-1,1.7513616E-2,-2.1847986E-2,-5.6281246E-2,-7.5241347E-4,-1.3631775E-2,-1.4314259E-2,-4.653077E-2,-1.7482216E-2,4.6015006E-2,-3.1049287E-2,3.411144E-4,-7.3212147E-4,-3.7638802E-2,2.9199252E-2,4.161895E-3,7.809484E-2,-1.7617868E-3,-8.765592E-3,2.0647403E-2],"categories":[],"categories_nodes":[],"categories_segments":[],"categories_sizes":[],"default_left":[0,0,0,0,0,0,0,0,0,0,0,0,0,0,0,0,0,0,0,0,0,0,0,0,0,0,0,0,0,0,0,0,0,0,0,0,0,0,0,0,0,0,0,0,0,0,0,0,0,0,0,0,0],"id":11,"left_children":[1,3,5,7,-1,9,11,13,15,17,-1,19,21,23,-1,25,-1,-1,-1,27,29,31,33,-1,-1,-1,35,37,39,41,43,45,47,49,51,-1,-1,-1,-1,-1,-1,-1,-1,-1,-1,-1,-1,-1,-1,-1,-1,-1,-1],"loss_changes":[8.435052E-2,1.0803634E-1,1.4206663E-1,2.5018528E-2,0E0,1.5422031E-1,7.840057E-2,5.9114937E-3,2.7028546E-2,2.152296E-2,0E0,5.240083E-2,9.2812836E-2,1.5787664E-4,0E0,1.9453809E-2,0E0,0E0,0E0,5.6928627E-2,9.1482565E-2,9.548894E-2,2.6848993E-1,0E0,0E0,0E0,8.172095E-4,3.173308E-2,3.6504522E-2,5.5662245E-2,8.388154E-3,1.18137896E-1,7.167841E-2,1.1261454E-1,1.866478E-1,0E0,0E0,0E0,0E0,0E0,0E0,0E0,0E0,0E0,0E0,0E0,0E0,0E0,0E0,0E0,0E0,0E0,0E0],"parents":[2147483647,0,0,1,1,2,2,3,3,5,5,6,6,7,7,8,8,9,9,11,11,12,12,13,13,15,15,19,19,20,20,21,21,22,22,26,26,27,27,28,28,29,29,30,30,31,31,32,32,33,33,34,34],"right_children":[2,4,6,8,-1,10,12,14,16,18,-1,20,22,24,-1,26,-1,-1,-1,28,30,32,34,-1,-1,-1,36,38,40,42,44,46,48,50,52,-1,-1,-1,-1,-1,-1,-1,-1,-1,-1,-1,-1,-1,-1,-1,-1,-1,-1],"split_conditions":[1.26E-1,4.7E1,1.3E-1,2.8E1,4.8305184E-2,2.9E1,2.63E1,1.15E2,1.26E2,5E0,7.300676E-2,1.52E2,7.31E-1,1.03E2,-1.9528687E-2,2.33E1,4.3847505E-3,-2.4475833E-2,1.6537223E-2,1.9E1,1.84E2,1.67E2,7.59E-1,-6.6214695E-4,-4.512993E-3,-2.345901E-3,9.3E1,7.5E1,4.7E1,1E0,1.95E2,1.64E2,1.79E2,7.5E1,3E0,-2.1847986E-2,-5.6281246E-2,-7.5241347E-4,-1.3631775E-2,-1.4314259E-2,-4.653077E-2,-1.7482216E-2,4.6015006E-2,-3.1049287E-2,3.411144E-4,-7.3212147E-4,-3.7638802E-2,2.9199252E-2,4.161895E-3,7.809484E-2,-1.7617868E-3,-8.765592E-3,2.0647403E-2],"split_indices":[6,7,6,7,0,5,5,1,1,0,0,1,6,1,0,5,0,0,0,3,1,1,6,0,0,0,1,2,7,0,1,1,1,4,0,0,0,0,0,0,0,0,0,0,0,0,0,0,0,0,0,0,0],"split_type":[0,0,0,0,0,0,0,0,0,0,0,0,0,0,0,0,0,0,0,0,0,0,0,0,0,0,0,0,0,0,0,0,0,0,0,0,0,0,0,0,0,0,0,0,0,0,0,0,0,0,0,0,0],"sum_hessian":[6.14E2,1.7E1,5.97E2,1.6E1,1E0,7E0,5.9E2,8E0,8E0,3E0,4E0,1.3E2,4.6E2,4E0,4E0,7E0,1E0,2E0,1E0,1.21E2,9E0,3.76E2,8.4E1,2E0,2E0,1E0,6E0,9.1E1,3E1,6E0,3E0,3.31E2,4.5E1,8E0,7.6E1,2E0,4E0,6.9E1,2.2E1,2.7E1,3E0,1E0,5E0,2E0,1E0,3.24E2,7E0,1.5E1,3E1,6E0,2E0,4E1,3.6E1],"tree_param":{"num_deleted":"0","num_feature":"8","num_nodes":"53","size_leaf_vector":"1"}},{"base_weights":[6.516805E-4,-1.5224202E-3,4.9961977E-2,-2.4897812E-4,-5.6405835E-2,1.09683335E-1,-2.8853213E-2,-2.3724519E-2,4.2185313E-3,-6.647993E-4,1.4987037E-1,-7.2400145E-2,2.2902207E-2,-4.817325E-2,3.872875E-2,2.0316198E-2,-3.2016884E-3,-4.0162474E-2,3.9054472E-2,1.5912572E-1,8.597527E-3,-5.1497323E-3,-3.755116E-2,-2.0622296E-2,-8.2383715E-2,2.721025E-1,-1.7805712E-3,9.7202115E-2,1.2051375E-2,-4.9251672E-2,3.654396E-3,-3.815672E-3,-1.4257441E-2,1.2874783E-3,1.6287036E-2,1.6967523E-1,9.627012E-3,2.9434636E-3,-5.6283777E-3,-8.582453E-3,4.1697044E-3,-1.4983226E-2,-3.1275783E-2,-8.013146E-3,1.141831E-1,2.8056905E-2,-1.6583266E-2,-1.6946457E-2,6.1781637E-2,-1.1281239E-2,1.13422265E-2,-1.8403653E-2,1.7204812E-2,8.750052E-2,-8.7002365E-5,5.599225E-2,2.2059124E-2,-4.4230328E-5,1.2068724E-3],"categories":[],"categories_nodes":[],"categories_segments":[],"categories_sizes":[],"default_left":[0,0,0,0,0,0,0,0,0,0,0,0,0,0,0,0,0,0,0,0,0,0,0,0,0,0,0,0,0,0,0,0,0,0,0,0,0,0,0,0,0,0,0,0,0,0,0,0,0,0,0,0,0,0,0,0,0,0,0],"id":12,"left_children":[1,3,5,7,-1,9,11,13,15,17,19,21,-1,23,25,27,29,31,33,35,-1,37,-1,39,41,43,45,47,49,51,53,-1,-1,-1,-1,55,-1,57,-1,-1,-1,-1,-1,-1,-1,-1,-1,-1,-1,-1,-1,-1,-1,-1,-1,-1,-1,-1,-1],"loss_changes":[6.600748E-2,1.4007415E-1,1.2554541E-1,6.1662994E-2,0E0,6.66181E-2,6.0497537E-2,1.4539461E-1,5.907247E-2,9.412618E-3,7.7801347E-3,3.1294875E-2,0E0,6.239316E-2,2.5573742E-1,9.795856E-2,1.0720994E-1,1.6824342E-6,1.355913E-3,7.956803E-3,0E0,6.060268E-4,0E0,1.1149265E-2,1.607576E-2,1.3986045E-1,1.275326E-1,2.6230973E-1,1.830297E-1,6.0243614E-2,3.3635348E-1,0E0,0E0,0E0,0E0,9.5659494E-4,0E0,1.3938919E-5,0E0,0E0,0E0,0E0,0E0,0E0,0E0,0E0,0E0,0E0,0E0,0E0,0E0,0E0,0E0,0E0,0E0,0E0,0E0,0E0,0E0],"parents":[2147483647,0,0,1,1,2,2,3,3,5,5,6,6,7,7,8,8,9,9,10,10,11,11,13,13,14,14,15,15,16,16,17,17,18,18,19,19,21,21,23,23,24,24,25,25,26,26,27,27,28,28,29,29,30,30,35,35,37,37],"right_children":[2,4,6,8,-1,10,12,14,16,18,20,22,-1,24,26,28,30,32,34,36,-1,38,-1,40,42,44,46,48,50,52,54,-1,-1,-1,-1,56,-1,58,-1,-1,-1,-1,-1,-1,-1,-1,-1,-1,-1,-1,-1,-1,-1,-1,-1,-1,-1,-1,-1],"split_conditions":[1.182E0,1.159E0,1.461E0,9.3E1,-5.6405835E-2,1.9E1,4.09E1,3.1E1,7E0,2.72E1,1E1,1.19E2,2.2902207E-2,2.93E1,3.11E1,1.42E-1,1.87E-1,2E0,2E0,8.4E1,8.597527E-3,3E0,-3.755116E-2,3.8E1,2.8E1,3E0,1.4E1,1.16E2,2.54E-1,1E1,1.98E-1,-3.815672E-3,-1.4257441E-2,1.2874783E-3,1.6287036E-2,6E0,9.627012E-3,8.3E1,-5.6283777E-3,-8.582453E-3,4.1697044E-3,-1.4983226E-2,-3.1275783E-2,-8.013146E-3,1.141831E-1,2.8056905E-2,-1.6583266E-2,-1.6946457E-2,6.1781637E-2,-1.1281239E-2,1.13422265E-2,-1.8403653E-2,1.7204812E-2,8.750052E-2,-8.7002365E-5,5.599225E-2,2.2059124E-2,-4.4230328E-5,1.2068724E-3],"split_indices":[6,6,6,1,0,3,5,3,3,5,0,1,0,5,5,6,6,0,0,2,0,0,0,4,7,0,4,1,6,0,6,0,0,0,0,0,0,1,0,0,0,0,0,0,0,0,0,0,0,0,0,0,0,0,0,0,0,0,0],"split_type":[0,0,0,0,0,0,0,0,0,0,0,0,0,0,0,0,0,0,0,0,0,0,0,0,0,0,0,0,0,0,0,0,0,0,0,0,0,0,0,0,0,0,0,0,0,0,0,0,0,0,0,0,0,0,0,0,0,0,0],"sum_hessian":[6.14E2,5.89E2,2.5E1,5.86E2,3E0,1.4E1,1.1E1,9.3E1,4.93E2,4E0,1E1,8E0,3E0,6.7E1,2.6E1,1.55E2,3.38E2,2E0,2E0,9E0,1E0,4E0,4E0,3.8E1,2.9E1,3E0,2.3E1,1.4E1,1.41E2,4.3E1,2.95E2,1E0,1E0,1E0,1E0,8E0,1E0,3E0,1E0,3.1E1,7E0,1.3E1,1.6E1,1E0,2E0,8E0,1.5E1,6E0,8E0,4.8E1,9.3E1,3.9E1,4E0,3E0,2.92E2,6E0,2E0,1E0,2E0],"tree_param":{"num_deleted":"0","num_feature":"8","num_nodes":"59","size_leaf_vector":"1"}},{"base_weights":[8.112035E-4,-5.112764E-4,7.347385E-2,6.088765E-4,-9.629132E-2,1.2574524E-2,1.06477104E-1,-2.615137E-4,1.0406353E-1,-1.2799242E-1,1.4087293E-2,1.49088865E-2,-8.621625E-3,3.9765015E-2,8.258951E-3,1.4799198E-3,-5.040172E-2,3.4493025E-2,9.061602E-3,-2.7463902E-3,-4.4978715E-2,-6.725635E-4,4.8947554E-2,-7.687352E-2,1.2522964E-1,4.165877E-4,-5.6541666E-2,-1.8424941E-2,2.8583677E-2,-3.481623E-2,1.446204E-2,-6.304745E-3,6.265809E-2],"categories":[],"categories_nodes":[],"categories_segments":[],"categories_sizes":[],"default_left":[0,0,0,0,0,0,0,0,0,0,0,0,0,0,0,0,0,0,0,0,0,0,0,0,0,0,0,0,0,0,0,0,0],"id":13,"left_children":[1,3,5,7,9,11,13,15,17,19,-1,-1,-1,-1,-1,21,23,-1,-1,-1,-1,25,27,29,31,-1,-1,-1,-1,-1,-1,-1,-1],"loss_changes":[5.9135925E-2,6.496805E-2,2.0769738E-2,5.3964723E-2,3.779827E-2,9.096316E-3,1.0759637E-2,5.2027512E-2,5.572364E-4,1.426886E-2,0E0,0E0,0E0,0E0,0E0,5.8884736E-2,1.02612406E-1,0E0,0E0,0E0,0E0,2.139357E-1,1.336846E-1,9.380755E-2,4.1081168E-2,0E0,0E0,0E0,0E0,0E0,0E0,0E0,0E0],"parents":[2147483647,0,0,1,1,2,2,3,3,4,4,5,5,6,6,7,7,8,8,9,9,15,15,16,16,21,21,22,22,23,23,24,24],"right_children":[2,4,6,8,10,12,14,16,18,20,-1,-1,-1,-1,-1,22,24,-1,-1,-1,-1,26,28,30,32,-1,-1,-1,-1,-1,-1,-1,-1],"split_conditions":[4.83E1,5.1E1,3.4E1,1.4E1,1.48E2,2.4E-1,1.5E1,6.3E1,1.7E1,8.7E1,1.4087293E-2,1.49088865E-2,-8.621625E-3,3.9765015E-2,8.258951E-3,4.4E1,7E1,3.4493025E-2,9.061602E-3,-2.7463902E-3,-4.4978715E-2,4.3E1,3.31E-1,3.38E1,3E0,4.165877E-4,-5.6541666E-2,-1.8424941E-2,2.8583677E-2,-3.481623E-2,1.446204E-2,-6.304745E-3,6.265809E-2],"split_indices":[5,3,3,0,1,6,4,7,0,1,0,0,0,0,0,3,7,0,0,0,0,3,6,5,0,0,0,0,0,0,0,0,0],"split_type":[0,0,0,0,0,0,0,0,0,0,0,0,0,0,0,0,0,0,0,0,0,0,0,0,0,0,0,0,0,0,0,0,0],"sum_hessian":[6.14E2,6.04E2,1E1,5.98E2,6E0,4E0,6E0,5.94E2,4E0,5E0,1E0,2E0,2E0,4E0,2E0,5.75E2,1.9E1,3E0,1E0,1E0,4E0,5.51E2,2.4E1,1.7E1,2E0,5.46E2,5E0,7E0,1.7E1,1.3E1,4E0,1E0,1E0],"tree_param":{"num_deleted":"0","num_feature":"8","num_nodes":"33","size_leaf_vector":"1"}},{"base_weights":[6.560742E-4,-6.415437E-2,1.8333615E-3,-3.6773123E-2,-5.069503E-2,1.3226129E-2,-4.0817666E-3,-1.5545725E-2,-1.9418338E-2,3.000372E-2,-3.3686556E-2,-5.9392672E-2,5.31038E-3,3.736969E-3,-3.0941987E-2,2.0899544E-2,1.9240448E-1,-1.7347293E-1,-2.5658992E-3,-8.561684E-2,7.504504E-2,6.746348E-2,-2.6806768E-3,2.007545E-3,-7.6913583E-4,-2.3202025E-3,-1.08299935E-2,3.0013923E-2,-9.368727E-2,-2.0271163E-2,7.1759015E-2,-5.5628765E-2,-8.4057406E-2,-1.3397787E-2,4.7147125E-2,-4.8179638E-2,-1.7576845E-1,2.1456198E-1,-5.3726595E-2,8.635691E-2,-5.6412987E-2,-2.935553E-2,7.3044286E-3,-3.990459E-4,1.7875774E-2,6.724381E-3,-4.896999E-2,9.059316E-3,-2.3650082E-2,4.4006538E-3,-3.308737E-2,-1.796545E-2,5.4225318E-2,-6.34721E-2,7.81256E-3,9.810458E-2,9.176417E-3,-3.0738676E-2,2.849275E-2,-3.976814E-3,4.0410414E-2,-1.5022714E-2,2.290266E-2,-6.518974E-3,7.540491E-3],"categories":[],"categories_nodes":[],"categories_segments":[],"categories_sizes":[],"default_left":[0,0,0,0,0,0,0,0,0,0,0,0,0,0,0,0,0,0,0,0,0,0,0,0,0,0,0,0,0,0,0,0,0,0,0,0,0,0,0,0,0,0,0,0,0,0,0,0,0,0,0,0,0,0,0,0,0,0,0,0,0,0,0,0,0],"id":14,"left_children":[1,3,5,7,-1,9,11,13,-1,15,17,19,21,23,25,27,29,31,33,35,37,39,41,-1,-1,-1,-1,43,45,-1,-1,47,-1,49,-1,51,53,55,57,59,-1,61,63,-1,-1,-1,-1,-1,-1,-1,-1,-1,-1,-1,-1,-1,-1,-1,-1,-1,-1,-1,-1,-1,-1],"loss_changes":[4.7042437E-2,2.5359802E-2,4.0824745E-2,4.9278084E-3,0E0,1.6393667E-1,2.0759118E-1,2.1937992E-3,0E0,2.221932E-1,2.3881826E-1,2.1090512E-1,1.7004162E-1,9.1627444E-5,1.9962853E-4,1.5529251E-1,1.13481134E-1,1.10174716E-1,8.169022E-2,1.5690774E-1,1.9118594E-1,2.0450737E-1,8.118519E-2,0E0,0E0,0E0,0E0,1.2613857E-1,9.247748E-2,0E0,0E0,1.4330134E-2,0E0,1.2127462E-1,0E0,1.0729266E-1,1.0667184E-1,9.3439594E-2,5.321409E-2,1.7996782E-1,0E0,1.8559918E-1,1.1547513E-1,0E0,0E0,0E0,0E0,0E0,0E0,0E0,0E0,0E0,0E0,0E0,0E0,0E0,0E0,0E0,0E0,0E0,0E0,0E0,0E0,0E0,0E0],"parents":[2147483647,0,0,1,1,2,2,3,3,5,5,6,6,7,7,9,9,10,10,11,11,12,12,13,13,14,14,15,15,16,16,17,17,18,18,19,19,20,20,21,21,22,22,27,27,28,28,31,31,33,33,35,35,36,36,37,37,38,38,39,39,41,41,42,42],"right_children":[2,4,6,8,-1,10,12,14,-1,16,18,20,22,24,26,28,30,32,34,36,38,40,42,-1,-1,-1,-1,44,46,-1,-1,48,-1,50,-1,52,54,56,58,60,-1,62,64,-1,-1,-1,-1,-1,-1,-1,-1,-1,-1,-1,-1,-1,-1,-1,-1,-1,-1,-1,-1,-1,-1],"split_conditions":[1.08E-1,1.27E2,2.79E-1,3.2E1,-5.069503E-2,1.37E2,3.31E-1,1.15E2,-1.9418338E-2,1.33E2,1.41E2,4.2E1,3.75E-1,3E0,1E0,2.63E-1,7E1,2.74E1,6.6E1,3.51E1,7.5E1,8E0,5.03E-1,2.007545E-3,-7.6913583E-4,-2.3202025E-3,-1.08299935E-2,2.96E1,6.8E1,-2.0271163E-2,7.1759015E-2,1.47E-1,-8.4057406E-2,5.4E1,4.7147125E-2,3.9E1,4.07E1,1.03E2,1.26E2,6.8E1,-5.6412987E-2,1.48E2,3.05E1,-3.990459E-4,1.7875774E-2,6.724381E-3,-4.896999E-2,9.059316E-3,-2.3650082E-2,4.4006538E-3,-3.308737E-2,-1.796545E-2,5.4225318E-2,-6.34721E-2,7.81256E-3,9.810458E-2,9.176417E-3,-3.0738676E-2,2.849275E-2,-3.976814E-3,4.0410414E-2,-1.5022714E-2,2.290266E-2,-6.518974E-3,7.540491E-3],"split_indices":[6,4,6,3,0,1,6,1,0,1,1,7,6,0,0,6,2,5,7,5,2,0,6,0,0,0,0,5,2,0,0,6,0,7,0,3,5,1,1,2,0,1,5,0,0,0,0,0,0,0,0,0,0,0,0,0,0,0,0,0,0,0,0,0,0],"split_type":[0,0,0,0,0,0,0,0,0,0,0,0,0,0,0,0,0,0,0,0,0,0,0,0,0,0,0,0,0,0,0,0,0,0,0,0,0,0,0,0,0,0,0,0,0,0,0,0,0,0,0,0,0,0,0,0,0,0,0,0,0,0,0,0,0],"sum_hessian":[6.14E2,1E1,6.04E2,9E0,1E0,2.06E2,3.98E2,6E0,3E0,1.52E2,5.4E1,5.7E1,3.41E2,3E0,3E0,1.45E2,7E0,9E0,4.5E1,4.8E1,9E0,3.8E1,3.03E2,2E0,1E0,1E0,2E0,1.35E2,1E1,1E0,6E0,5E0,4E0,4.3E1,2E0,3.5E1,1.3E1,4E0,5E0,3.6E1,2E0,8.2E1,2.21E2,6.6E1,6.9E1,4E0,6E0,1E0,4E0,3.4E1,9E0,3.4E1,1E0,1.1E1,2E0,2E0,2E0,4E0,1E0,1.2E1,2.4E1,6.9E1,1.3E1,8.4E1,1.37E2],"tree_param":{"num_deleted":"0","num_feature":"8","num_nodes":"65","size_leaf_vector":"1"}},{"base_weights":[3.6017055E-4,1.6467815E-3,-4.240391E-2,8.5863285E-3,-9.732771E-3,-7.958111E-2,7.0173025E-2,-1.1949511E-2,2.3148112E-2,-2.1061538E-2,2.1441601E-2,-1.0799505E-1,-2.3696687E-2,4.792488E-3,3.0294025E-2,-4.665157E-3,-5.8208484E-2,5.5040974E-2,1.0406039E-2,-6.1353493E-2,-7.275089E-4,1.14404954E-1,7.272186E-3,-1.2836437E-1,-2.4468273E-2,4.7217467E-4,-2.168115E-2,-1.36748785E-2,4.4895947E-2,-1.7580282E-2,-9.3545005E-2,1.08422395E-2,1.2002142E-1,-6.713564E-2,3.0016577E-2,-7.430499E-2,1.768794E-2,-2.2522151E-2,5.4462917E-2,-8.3775325E-3,1.3872711E-1,4.0731434E-2,-2.7695633E-2,-7.091004E-3,-4.2563863E-2,-1.0388647E-2,-6.220758E-4,3.2339664E-3,-1.4399177E-3,6.796794E-4,-2.3260586E-2,3.392095E-2,-1.2420694E-2,-2.606074E-3,-1.5977098E-2,-5.8009457E-3,-3.236619E-2,-7.1905353E-3,5.0528385E-2,1.563105E-2,7.7350214E-2,7.3134966E-2,-3.6077753E-2,-2.0300277E-2,1.2849382E-2,-1.0329731E-2,-3.8887843E-2,-8.510421E-4,-3.268457E-2,-5.4217884E-3,3.84384E-2,7.49849E-2,1.3274453E-2,-9.607933E-4,3.2676212E-2,1.890653E-2,-2.076281E-2],"categories":[],"categories_nodes":[],"categories_segments":[],"categories_sizes":[],"default_left":[0,0,0,0,0,0,0,0,0,0,0,0,0,0,0,0,0,0,0,0,0,0,0,0,0,0,0,0,0,0,0,0,0,0,0,0,0,0,0,0,0,0,0,0,0,0,0,0,0,0,0,0,0,0,0,0,0,0,0,0,0,0,0,0,0,0,0,0,0,0,0,0,0,0,0,0,0],"id":15,"left_children":[1,3,5,7,9,11,13,15,17,19,21,23,25,-1,-1,27,29,31,33,35,37,39,41,43,45,47,-1,49,51,53,55,57,59,61,63,65,-1,67,69,-1,71,73,75,-1,-1,-1,-1,-1,-1,-1,-1,-1,-1,-1,-1,-1,-1,-1,-1,-1,-1,-1,-1,-1,-1,-1,-1,-1,-1,-1,-1,-1,-1,-1,-1,-1,-1],"loss_changes":[3.3907577E-2,4.7306996E-2,8.091976E-2,1.1151893E-1,8.062054E-2,1.9671433E-2,6.7352615E-3,5.19583E-2,8.801835E-2,1.3677809E-1,7.9519436E-2,1.2171596E-2,7.077966E-3,0E0,0E0,6.0895734E-2,2.8504305E-2,1.7676604E-1,2.4075472E-1,9.1642275E-2,1.3594645E-1,3.1568184E-2,6.430792E-2,6.554328E-3,6.108214E-4,3.2344667E-4,0E0,1.17241666E-1,1.2823041E-1,3.0275085E-3,9.621352E-3,2.124923E-1,2.205646E-1,5.5786455E-1,1.606242E-1,1.0803223E-1,0E0,1.3749894E-1,1.7330238E-1,0E0,6.249748E-2,8.423216E-2,1.0604417E-1,0E0,0E0,0E0,0E0,0E0,0E0,0E0,0E0,0E0,0E0,0E0,0E0,0E0,0E0,0E0,0E0,0E0,0E0,0E0,0E0,0E0,0E0,0E0,0E0,0E0,0E0,0E0,0E0,0E0,0E0,0E0,0E0,0E0,0E0],"parents":[2147483647,0,0,1,1,2,2,3,3,4,4,5,5,6,6,7,7,8,8,9,9,10,10,11,11,12,12,15,15,16,16,17,17,18,18,19,19,20,20,21,21,22,22,23,23,24,24,25,25,27,27,28,28,29,29,30,30,31,31,32,32,33,33,34,34,35,35,37,37,38,38,40,40,41,41,42,42],"right_children":[2,4,6,8,10,12,14,16,18,20,22,24,26,-1,-1,28,30,32,34,36,38,40,42,44,46,48,-1,50,52,54,56,58,60,62,64,66,-1,68,70,-1,72,74,76,-1,-1,-1,-1,-1,-1,-1,-1,-1,-1,-1,-1,-1,-1,-1,-1,-1,-1,-1,-1,-1,-1,-1,-1,-1,-1,-1,-1,-1,-1,-1,-1,-1,-1],"split_conditions":[3.75E2,7.5E1,3.5E1,1.07E2,6.12E-1,6.58E-1,3E0,1.03E2,1.17E2,8E1,6.66E-1,7.5E1,1.88E2,4.792488E-3,3.0294025E-2,3.74E1,2.6E1,3.09E1,1.24E2,1.66E2,1.14E2,1.82E1,3.53E1,2.38E1,1E0,1E0,-2.168115E-2,3.21E1,3.96E1,4.57E-1,2.59E1,7E0,5.29E-1,2.04E-1,1.73E-1,1.26E2,1.768794E-2,3.75E-1,3.5E1,-8.3775325E-3,1.4E1,3.8E1,8E1,-7.091004E-3,-4.2563863E-2,-1.0388647E-2,-6.220758E-4,3.2339664E-3,-1.4399177E-3,6.796794E-4,-2.3260586E-2,3.392095E-2,-1.2420694E-2,-2.606074E-3,-1.5977098E-2,-5.8009457E-3,-3.236619E-2,-7.1905353E-3,5.0528385E-2,1.563105E-2,7.7350214E-2,7.3134966E-2,-3.6077753E-2,-2.0300277E-2,1.2849382E-2,-1.0329731E-2,-3.8887843E-2,-8.510421E-4,-3.268457E-2,-5.4217884E-3,3.84384E-2,7.49849E-2,1.3274453E-2,-9.607933E-4,3.2676212E-2,1.890653E-2,-2.076281E-2],"split_indices":[4,2,7,1,6,6,0,1,1,2,6,2,1,0,0,5,7,5,1,1,4,5,5,5,0,0,0,5,5,6,5,0,6,6,6,1,0,6,7,0,4,7,2,0,0,0,0,0,0,0,0,0,0,0,0,0,0,0,0,0,0,0,0,0,0,0,0,0,0,0,0,0,0,0,0,0,0],"split_type":[0,0,0,0,0,0,0,0,0,0,0,0,0,0,0,0,0,0,0,0,0,0,0,0,0,0,0,0,0,0,0,0,0,0,0,0,0,0,0,0,0,0,0,0,0,0,0,0,0,0,0,0,0,0,0,0,0,0,0,0,0,0,0,0,0,0,0,0,0,0,0,0,0,0,0,0,0],"sum_hessian":[6.14E2,5.97E2,1.7E1,3.71E2,2.26E2,1.3E1,4E0,1.54E2,2.17E2,1.66E2,6E1,8E0,5E0,2E0,2E0,1.34E2,2E1,6.1E1,1.56E2,5.5E1,1.11E2,7E0,5.3E1,6E0,2E0,4E0,1E0,1.14E2,2E1,1E1,1E1,3.7E1,2.4E1,3.1E1,1.25E2,5E1,5E0,8E1,3.1E1,1E0,6E0,2.7E1,2.6E1,1E0,5E0,1E0,1E0,1E0,3E0,9.2E1,2.2E1,1.1E1,9E0,9E0,1E0,2E0,8E0,3.1E1,6E0,1.7E1,7E0,4E0,2.7E1,1.4E1,1.11E2,3E1,2E1,6.6E1,1.4E1,1.6E1,1.5E1,2E0,4E0,1.7E1,1E1,8E0,1.8E1],"tree_param":{"num_deleted":"0","num_feature":"8","num_nodes":"77","size_leaf_vector":"1"}},{"base_weights":[4.8028256E-4,-3.3054548E-5,1.0521207E-1,2.085385E-3,-2.8163193E-2,1.0304763E-3,4.6314955E-2,2.9924174E-4,5.694305E-2,4.315814E-2,-6.0507707E-2,8.67624E-3,-8.480709E-3,-2.2926804E-2,8.140064E-2,-2.8238475E-2,1.7731974E-1,-7.898936E-2,2.6583783E-2,-4.1715603E-4,6.258142E-2,1.1852269E-2,-2.7311485E-2,-2.0822916E-2,9.359515E-3,1.7253849E-1,2.7691646E-2,1.910058E-2,-5.917382E-2,5.6356606E-3,6.367707E-2,-9.190587E-2,1.1798814E-2,1.7136307E-2,-2.2993797E-2,-7.956044E-3,2.5862358E-3,8.100427E-3,6.946237E-2,1.0467905E-2,-8.225345E-3,-6.43625E-2,-6.0836743E-3,-3.2460564E-3,6.6324964E-2,-2.6990099E-2,2.0505654E-2,-2.7544053E-2,7.7490513E-3,-1.7419249E-2,-3.3260483E-2,1.17024835E-2,-1.0474438E-2,-9.47728E-3,-8.6992985E-4],"categories":[],"categories_nodes":[],"categories_segments":[],"categories_sizes":[],"default_left":[0,0,0,0,0,0,0,0,0,0,0,0,0,0,0,0,0,0,0,0,0,0,0,0,0,0,0,0,0,0,0,0,0,0,0,0,0,0,0,0,0,0,0,0,0,0,0,0,0,0,0,0,0,0,0],"id":16,"left_children":[1,3,5,7,9,-1,-1,11,13,15,17,19,21,23,25,27,29,31,33,35,37,39,41,-1,-1,43,45,-1,47,-1,-1,49,51,-1,53,-1,-1,-1,-1,-1,-1,-1,-1,-1,-1,-1,-1,-1,-1,-1,-1,-1,-1,-1,-1],"loss_changes":[3.3067547E-2,3.658862E-2,1.4483191E-2,5.5931628E-2,1.01806134E-1,0E0,0E0,4.082008E-2,3.7027884E-2,1.3910882E-1,5.038766E-2,1.3923754E-1,1.0408575E-1,1.4744954E-2,6.3751034E-2,3.2199282E-2,2.3706317E-2,3.0401051E-2,1.0397205E-2,5.7792444E-2,2.4022324E-1,1.1948706E-1,1.8130538E-1,0E0,0E0,4.689765E-2,5.3990066E-2,0E0,2.4567591E-2,0E0,0E0,7.6803565E-3,6.4461753E-3,0E0,4.266468E-4,0E0,0E0,0E0,0E0,0E0,0E0,0E0,0E0,0E0,0E0,0E0,0E0,0E0,0E0,0E0,0E0,0E0,0E0,0E0,0E0],"parents":[2147483647,0,0,1,1,2,2,3,3,4,4,7,7,8,8,9,9,10,10,11,11,12,12,13,13,14,14,15,15,16,16,17,17,18,18,19,19,20,20,21,21,22,22,25,25,26,26,28,28,31,31,32,32,34,34],"right_children":[2,4,6,8,10,-1,-1,12,14,16,18,20,22,24,26,28,30,32,34,36,38,40,42,-1,-1,44,46,-1,48,-1,-1,50,52,-1,54,-1,-1,-1,-1,-1,-1,-1,-1,-1,-1,-1,-1,-1,-1,-1,-1,-1,-1,-1,-1],"split_conditions":[7E1,5.7E1,3E0,5.2E1,5E0,1.0304763E-3,4.6314955E-2,1.17E2,7.2E1,4E0,1.91E2,1.12E2,2.5E1,1.38E2,2.71E1,1.06E2,1.33E2,1.8E2,8.4E1,6.1E1,3.9E1,3.31E1,2.6E1,-2.0822916E-2,9.359515E-3,8E1,3.04E1,1.910058E-2,1.74E2,5.6356606E-3,6.367707E-2,2.69E1,7E0,1.7136307E-2,7E0,-7.956044E-3,2.5862358E-3,8.100427E-3,6.946237E-2,1.0467905E-2,-8.225345E-3,-6.43625E-2,-6.0836743E-3,-3.2460564E-3,6.6324964E-2,-2.6990099E-2,2.0505654E-2,-2.7544053E-2,7.7490513E-3,-1.7419249E-2,-3.3260483E-2,1.17024835E-2,-1.0474438E-2,-9.47728E-3,-8.6992985E-4],"split_indices":[7,7,0,7,0,0,0,1,2,0,4,1,3,1,5,1,1,1,2,2,7,5,3,0,0,2,5,0,1,0,0,5,0,0,0,0,0,0,0,0,0,0,0,0,0,0,0,0,0,0,0,0,0,0,0],"split_type":[0,0,0,0,0,0,0,0,0,0,0,0,0,0,0,0,0,0,0,0,0,0,0,0,0,0,0,0,0,0,0,0,0,0,0,0,0,0,0,0,0,0,0,0,0,0,0,0,0,0,0,0,0,0,0],"sum_hessian":[6.14E2,6.12E2,2E0,5.7E2,4.2E1,1E0,1E0,5.53E2,1.7E1,1.3E1,2.9E1,2.83E2,2.7E2,4E0,1.3E1,9E0,4E0,2.4E1,5E0,2.43E2,4E1,1.3E2,1.4E2,2E0,2E0,4E0,9E0,2E0,7E0,1E0,3E0,2.1E1,3E0,3E0,2E0,6.2E1,1.81E2,3.4E1,6E0,8.2E1,4.8E1,4E0,1.36E2,1E0,3E0,2E0,7E0,5E0,2E0,9E0,1.2E1,2E0,1E0,1E0,1E0],"tree_param":{"num_deleted":"0","num_feature":"8","num_nodes":"55","size_leaf_vector":"1"}},{"base_weights":[5.352556E-4,-4.993994E-5,7.1939096E-2,-9.1537717E-4,4.7238942E-2,2.4198944E-2,5.5564377E-3,5.431069E-4,-4.561963E-2,6.152506E-2,-1.13657275E-2,-2.0540613E-3,3.4046013E-2,-1.1616277E-1,2.9485475E-2,7.356351E-2,-5.2173794E-3,-7.917799E-3,2.8032213E-3,4.174447E-4,-9.529497E-2,4.398958E-4,1.415416E-1,-4.0908717E-2,-1.8323508E-1,7.00557E-2,-4.8883792E-2,7.9684995E-2,4.606962E-3,-7.4084825E-4,1.2756153E-2,-5.607507E-2,3.210236E-2,-2.4764339E-2,1.9780003E-2,6.6145E-2,2.2863545E-2,-1.8069426E-2,8.355716E-3,-7.108519E-2,4.744059E-3,-9.3196466E-4,2.4830151E-2,-2.6425272E-2,1.0307631E-2,6.3825133E-3,2.5762245E-2],"categories":[],"categories_nodes":[],"categories_segments":[],"categories_sizes":[],"default_left":[0,0,0,0,0,0,0,0,0,0,0,0,0,0,0,0,0,0,0,0,0,0,0,0,0,0,0,0,0,0,0,0,0,0,0,0,0,0,0,0,0,0,0,0,0,0,0],"id":17,"left_children":[1,3,5,7,9,-1,-1,11,13,15,17,19,21,23,25,27,-1,-1,-1,29,31,33,35,37,39,41,43,45,-1,-1,-1,-1,-1,-1,-1,-1,-1,-1,-1,-1,-1,-1,-1,-1,-1,-1,-1],"loss_changes":[2.5701497E-2,2.5048757E-2,8.3608925E-4,3.9210238E-2,9.908844E-3,0E0,0E0,5.0798327E-2,1.0408997E-1,9.829633E-3,1.1802294E-3,1.24941215E-1,1.5166312E-1,4.297872E-2,3.5219178E-2,1.6268231E-3,0E0,0E0,0E0,6.4404406E-2,2.794968E-1,1.8480258E-1,3.4769043E-2,9.649489E-3,5.7207033E-2,6.7671165E-3,1.6079048E-2,7.0357695E-4,0E0,0E0,0E0,0E0,0E0,0E0,0E0,0E0,0E0,0E0,0E0,0E0,0E0,0E0,0E0,0E0,0E0,0E0,0E0],"parents":[2147483647,0,0,1,1,2,2,3,3,4,4,7,7,8,8,9,9,10,10,11,11,12,12,13,13,14,14,15,15,19,19,20,20,21,21,22,22,23,23,24,24,25,25,26,26,27,27],"right_children":[2,4,6,8,10,-1,-1,12,14,16,18,20,22,24,26,28,-1,-1,-1,30,32,34,36,38,40,42,44,46,-1,-1,-1,-1,-1,-1,-1,-1,-1,-1,-1,-1,-1,-1,-1,-1,-1,-1,-1],"split_conditions":[1.4E1,4.83E1,1.7E1,4.5E1,1.05E2,2.4198944E-2,5.5564377E-3,4.09E1,8E1,8E0,1E0,4E1,5E0,7.8E1,8.8E1,1.5E1,-5.2173794E-3,-7.917799E-3,2.8032213E-3,9.55E-1,1.46E2,1.24E2,3.8E1,2E0,7E0,3.2E1,2E0,1.16E2,4.606962E-3,-7.4084825E-4,1.2756153E-2,-5.607507E-2,3.210236E-2,-2.4764339E-2,1.9780003E-2,6.6145E-2,2.2863545E-2,-1.8069426E-2,8.355716E-3,-7.108519E-2,4.744059E-3,-9.3196466E-4,2.4830151E-2,-2.6425272E-2,1.0307631E-2,6.3825133E-3,2.5762245E-2],"split_indices":[0,5,0,5,4,0,0,5,2,0,0,5,0,2,2,4,0,0,0,6,4,1,7,0,0,3,0,1,0,0,0,0,0,0,0,0,0,0,0,0,0,0,0,0,0,0,0],"split_type":[0,0,0,0,0,0,0,0,0,0,0,0,0,0,0,0,0,0,0,0,0,0,0,0,0,0,0,0,0,0,0,0,0,0,0,0,0,0,0,0,0,0,0,0,0,0,0],"sum_hessian":[6.14E2,6.1E2,4E0,6E2,1E1,3E0,1E0,5.82E2,1.8E1,8E0,2E0,5.41E2,4.1E1,9E0,9E0,7E0,1E0,1E0,1E0,5.28E2,1.3E1,3.2E1,9E0,5E0,4E0,6E0,3E0,6E0,1E0,4.95E2,3.3E1,9E0,4E0,1.4E1,1.8E1,3E0,6E0,4E0,1E0,3E0,1E0,1E0,5E0,2E0,1E0,1E0,5E0],"tree_param":{"num_deleted":"0","num_feature":"8","num_nodes":"47","size_leaf_vector":"1"}},{"base_weights":[4.7218305E-4,1.5980568E-3,-3.6958076E-2,1.0785873E-3,3.1279996E-2,-6.6243425E-2,5.2432515E-2,1.7203084E-3,-1.2634173E-1,-9.63222E-2,-3.164407E-2,2.2712888E-3,2.3944968E-2,6.8567907E-3,-6.733997E-3,-1.1454297E-2,-4.5399487E-2,-1.0722169E-1,-4.6387864E-3,-7.79321E-3,-2.0639328E-2,2.9336708E-3,4.554016E-2,-1.7345281E-2,2.2736123E-2,-7.486412E-3,-3.5605248E-2,-6.356515E-3,4.201472E-3,5.102856E-3,-5.398403E-3,3.534775E-2,-1.2943599E-2,2.075406E-3,-1.40630985E-2,6.529459E-2,4.7230683E-3,1.7479957E-3,5.1525835E-4],"categories":[],"categories_nodes":[],"categories_segments":[],"categories_sizes":[],"default_left":[0,0,0,0,0,0,0,0,0,0,0,0,0,0,0,0,0,0,0,0,0,0,0,0,0,0,0,0,0,0,0,0,0,0,0,0,0,0,0],"id":18,"left_children":[1,3,5,7,-1,9,11,13,15,17,19,-1,-1,21,23,-1,-1,25,-1,27,-1,29,31,33,35,-1,-1,-1,37,-1,-1,-1,-1,-1,-1,-1,-1,-1,-1],"loss_changes":[2.5976235E-2,3.1780794E-2,5.0594334E-2,4.8951264E-2,0E0,1.1521861E-2,5.5381637E-3,2.5840852E-2,8.3139166E-4,4.5113713E-3,6.553024E-3,0E0,0E0,5.6017414E-2,7.075542E-2,0E0,0E0,2.696164E-3,0E0,1.0530473E-3,0E0,9.9580966E-2,2.230471E-1,1.192694E-1,7.8349695E-2,0E0,0E0,0E0,6.1399915E-6,0E0,0E0,0E0,0E0,0E0,0E0,0E0,0E0,0E0,0E0],"parents":[2147483647,0,0,1,1,2,2,3,3,5,5,6,6,7,7,8,8,9,9,10,10,13,13,14,14,17,17,19,19,21,21,22,22,23,23,24,24,28,28],"right_children":[2,4,6,8,-1,10,12,14,16,18,20,-1,-1,22,24,-1,-1,26,-1,28,-1,30,32,34,36,-1,-1,-1,38,-1,-1,-1,-1,-1,-1,-1,-1,-1,-1],"split_conditions":[3.75E2,3.6E2,3.5E1,3.3E2,3.1279996E-2,1.59E2,3E0,7.5E1,2E0,7.5E1,1.88E2,2.2712888E-3,2.3944968E-2,4E1,1.47E2,-1.1454297E-2,-4.5399487E-2,2.38E1,-4.6387864E-3,1.73E2,-2.0639328E-2,4.43E-1,7E1,1.19E2,2.2E1,-7.486412E-3,-3.5605248E-2,-6.356515E-3,1E0,5.102856E-3,-5.398403E-3,3.534775E-2,-1.2943599E-2,2.075406E-3,-1.40630985E-2,6.529459E-2,4.7230683E-3,1.7479957E-3,5.1525835E-4],"split_indices":[4,4,7,4,0,1,0,2,0,2,1,0,0,3,1,0,0,5,0,1,0,6,2,1,7,0,0,0,0,0,0,0,0,0,0,0,0,0,0],"split_type":[0,0,0,0,0,0,0,0,0,0,0,0,0,0,0,0,0,0,0,0,0,0,0,0,0,0,0,0,0,0,0,0,0,0,0,0,0,0,0],"sum_hessian":[6.14E2,5.97E2,1.7E1,5.95E2,2E0,1.3E1,4E0,5.93E2,2E0,6E0,7E0,2E0,2E0,3.69E2,2.24E2,1E0,1E0,5E0,1E0,5E0,2E0,3.36E2,3.3E1,1.65E2,5.9E1,1E0,4E0,2E0,3E0,2.01E2,1.35E2,1.8E1,1.5E1,9.1E1,7.4E1,1E0,5.8E1,1E0,2E0],"tree_param":{"num_deleted":"0","num_feature":"8","num_nodes":"39","size_leaf_vector":"1"}},{"base_weights":[3.4405122E-4,-1.2665983E-4,9.6411325E-2,-4.7388196E-2,7.3570095E-4,1.7967925E-3,4.1588306E-2,-2.5816198E-2,-3.9466225E-2,-4.075118E-3,8.951783E-3,-4.3986063E-3,-4.635407E-2,2.1914835E-3,-3.901139E-2,1.15874454E-1,4.4343136E-3,2.8362738E-3,-1.2578911E-2,-1.114228E-3,-1.6825663E-2,-1.5559879E-3,5.130213E-2,-2.910213E-2,-6.3294135E-2,-6.4750873E-3,2.1504912E-1,-3.8393676E-2,9.023819E-3,2.218214E-3,-3.4429983E-4,-1.1034808E-3,-4.5570293E-3,3.0125373E-3,-7.4208416E-3,6.4262617E-3,5.6364868E-2,-3.4585553E-3,-2.5903028E-2,-4.390469E-3,3.9246217E-3,7.292131E-3,7.6997355E-2,-2.8678295E-3,-3.2665815E-2,2.2067454E-2,9.7118993E-4],"categories":[],"categories_nodes":[],"categories_segments":[],"categories_sizes":[],"default_left":[0,0,0,0,0,0,0,0,0,0,0,0,0,0,0,0,0,0,0,0,0,0,0,0,0,0,0,0,0,0,0,0,0,0,0,0,0,0,0,0,0,0,0,0,0,0,0],"id":19,"left_children":[1,3,5,7,9,-1,-1,11,-1,13,15,17,19,21,23,25,27,29,31,-1,-1,33,35,37,-1,39,41,43,45,-1,-1,-1,-1,-1,-1,-1,-1,-1,-1,-1,-1,-1,-1,-1,-1,-1,-1],"loss_changes":[2.7822467E-2,2.5018591E-2,1.0621581E-2,1.6575664E-2,2.3870708E-2,0E0,0E0,4.194824E-3,0E0,8.349846E-2,1.0719961E-1,3.9077838E-4,1.8664412E-3,5.9709024E-2,9.2696995E-2,1.1059821E-1,4.26067E-2,8.111747E-5,1.3850484E-5,0E0,0E0,8.143754E-2,8.9843094E-2,5.5337027E-2,0E0,9.893681E-4,3.3444047E-2,4.1643597E-2,7.258058E-2,0E0,0E0,0E0,0E0,0E0,0E0,0E0,0E0,0E0,0E0,0E0,0E0,0E0,0E0,0E0,0E0,0E0,0E0],"parents":[2147483647,0,0,1,1,2,2,3,3,4,4,7,7,9,9,10,10,11,11,12,12,13,13,14,14,15,15,16,16,17,17,18,18,21,21,22,22,23,23,25,25,26,26,27,27,28,28],"right_children":[2,4,6,8,10,-1,-1,12,-1,14,16,18,20,22,24,26,28,30,32,-1,-1,34,36,38,-1,40,42,44,46,-1,-1,-1,-1,-1,-1,-1,-1,-1,-1,-1,-1,-1,-1,-1,-1,-1,-1],"split_conditions":[7E1,1.08E-1,3E0,1.27E2,8.8E1,1.7967925E-3,4.1588306E-2,3E0,-3.9466225E-2,5.4E1,9.2E1,2.3E1,7E0,2.9E1,1.44E2,2.5E1,1.7E1,1E0,1E0,-1.114228E-3,-1.6825663E-2,7.8E1,1.02E2,4E0,-6.3294135E-2,1.03E2,1E0,2.98E1,2E1,2.218214E-3,-3.4429983E-4,-1.1034808E-3,-4.5570293E-3,3.0125373E-3,-7.4208416E-3,6.4262617E-3,5.6364868E-2,-3.4585553E-3,-2.5903028E-2,-4.390469E-3,3.9246217E-3,7.292131E-3,7.6997355E-2,-2.8678295E-3,-3.2665815E-2,2.2067454E-2,9.7118993E-4],"split_indices":[7,6,0,4,4,0,0,0,0,4,4,3,3,4,1,7,3,0,0,0,0,2,1,0,0,1,0,5,3,0,0,0,0,0,0,0,0,0,0,0,0,0,0,0,0,0,0],"split_type":[0,0,0,0,0,0,0,0,0,0,0,0,0,0,0,0,0,0,0,0,0,0,0,0,0,0,0,0,0,0,0,0,0,0,0,0,0,0,0,0,0,0,0,0,0,0,0],"sum_hessian":[6.14E2,6.12E2,2E0,1E1,6.02E2,1E0,1E0,9E0,1E0,3.8E2,2.22E2,5E0,4E0,3.23E2,5.7E1,8E0,2.14E2,3E0,2E0,1E0,3E0,3.01E2,2.2E1,5.5E1,2E0,4E0,4E0,2E1,1.94E2,1E0,2E0,1E0,1E0,2.01E2,1E2,1.9E1,3E0,4.3E1,1.2E1,3E0,1E0,1E0,3E0,1.5E1,5E0,1.5E1,1.79E2],"tree_param":{"num_deleted":"0","num_feature":"8","num_nodes":"47","size_leaf_vector":"1"}},{"base_weights":[2.7213225E-4,-1.2790077E-2,3.6640104E-3,-4.3720407E-3,-7.091695E-2,5.437925E-2,3.4852966E-4,-1.8628964E-2,3.9064046E-2,-7.47545E-3,-1.5141667E-1,-1.2205959E-2,1.2177819E-1,-5.3204815E-3,1.3211899E-2,-7.997618E-3,-9.7564295E-2,8.0845796E-2,-2.3382101E-2,4.1030556E-2,-4.6651214E-2,-2.2040582E-1,4.2112353E-3,-3.5276722E-2,4.560506E-2,5.740171E-3,1.9849907E-1,1.2043245E-3,-5.2363425E-2,4.5850534E-2,2.8290643E-4,-2.2893561E-2,5.9605386E-2,-1.7179352E-1,1.3290173E-1,1.1135931E-1,-2.9601118E-2,-6.496305E-2,1.5599012E-2,1.0373912E-2,2.454857E-2,-1.3355281E-2,-2.2648616E-2,-7.39995E-2,-1.730536E-2,-1.9279556E-2,-2.3052508E-2,-5.590236E-3,1.9897016E-2,-6.182917E-3,2.3698593E-2,3.0287156E-1,-7.6844105E-3,-4.7533993E-2,6.55126E-3,1.7323446E-1,-9.063472E-2,1.1351012E-1,7.143776E-4,4.4352498E-2,-1.31089045E-2,1.0819474E-2,-8.250605E-3,3.2146454E-2,-6.495911E-3,-7.551648E-3,-6.4941585E-2,7.049231E-2,-1.0686529E-2,5.8814235E-2,9.935254E-3,-3.1775244E-2,-1.06766E-2,7.0139323E-3,1.1755497E-3,4.0507508E-3,1.4822163E-4,-6.122278E-3,1.1702478E-3,-9.360956E-3,-1.8389825E-3,4.894663E-4,-3.5809248E-3,2.2301695E-3,8.434198E-3,1.0283502E-1,1.5496847E-2,-9.639431E-3,9.8485E-3,3.6106461E-3,-1.8302148E-2,9.795762E-2,1.2017959E-3,7.173869E-2,8.289093E-3,-3.1557407E-2,2.8454294E-2,5.6291863E-2,4.7777253E-3,3.1491403E-2,-1.1320104E-2,-8.378793E-3,5.0377633E-2,-9.324495E-3,7.416986E-3],"categories":[],"categories_nodes":[],"categories_segments":[],"categories_sizes":[],"default_left":[0,0,0,0,0,0,0,0,0,0,0,0,0,0,0,0,0,0,0,0,0,0,0,0,0,0,0,0,0,0,0,0,0,0,0,0,0,0,0,0,0,0,0,0,0,0,0,0,0,0,0,0,0,0,0,0,0,0,0,0,0,0,0,0,0,0,0,0,0,0,0,0,0,0,0,0,0,0,0,0,0,0,0,0,0,0,0,0,0,0,0,0,0,0,0,0,0,0,0,0,0,0,0,0,0],"id":20,"left_children":[1,3,5,7,9,11,13,15,17,19,21,23,25,27,29,31,33,35,37,39,41,43,-1,45,47,49,51,53,55,57,59,61,63,65,67,69,-1,71,73,75,-1,77,-1,-1,-1,79,-1,-1,-1,81,83,85,87,89,91,93,95,97,99,101,103,-1,-1,-1,-1,-1,-1,-1,-1,-1,-1,-1,-1,-1,-1,-1,-1,-1,-1,-1,-1,-1,-1,-1,-1,-1,-1,-1,-1,-1,-1,-1,-1,-1,-1,-1,-1,-1,-1,-1,-1,-1,-1,-1,-1],"loss_changes":[2.7294697E-2,6.1832845E-2,8.220415E-2,7.00854E-2,8.0580465E-2,1.3611959E-1,3.361468E-2,7.0550755E-2,7.4945405E-2,2.0916723E-2,8.29957E-2,2.2948705E-2,1.3239868E-1,9.828582E-2,5.9486866E-2,7.7897385E-2,1.9390479E-1,1.04108244E-1,2.0463819E-2,5.4047676E-3,4.7541E-3,7.135913E-3,0E0,6.497585E-3,7.890518E-3,1.6453654E-3,1.960063E-1,7.3800795E-2,3.5242403E-1,1.22074656E-1,6.0778923E-2,1.8109422E-2,5.641335E-2,4.695742E-2,5.9975106E-2,9.2899665E-2,0E0,3.4486037E-3,5.4456934E-4,1.16968615E-4,0E0,5.663882E-4,0E0,0E0,0E0,1.3766373E-3,0E0,0E0,0E0,2.442777E-4,6.448594E-6,4.2451978E-2,5.0164857E-3,2.3206756E-2,2.0636947E-1,5.095987E-2,1.01777166E-1,1.12753645E-1,1.04172885E-1,2.1905981E-1,5.4484352E-2,0E0,0E0,0E0,0E0,0E0,0E0,0E0,0E0,0E0,0E0,0E0,0E0,0E0,0E0,0E0,0E0,0E0,0E0,0E0,0E0,0E0,0E0,0E0,0E0,0E0,0E0,0E0,0E0,0E0,0E0,0E0,0E0,0E0,0E0,0E0,0E0,0E0,0E0,0E0,0E0,0E0,0E0,0E0,0E0],"parents":[2147483647,0,0,1,1,2,2,3,3,4,4,5,5,6,6,7,7,8,8,9,9,10,10,11,11,12,12,13,13,14,14,15,15,16,16,17,17,18,18,19,19,20,20,21,21,23,23,24,24,25,25,26,26,27,27,28,28,29,29,30,30,31,31,32,32,33,33,34,34,35,35,37,37,38,38,39,39,41,41,45,45,49,49,50,50,51,51,52,52,53,53,54,54,55,55,56,56,57,57,58,58,59,59,60,60],"right_children":[2,4,6,8,10,12,14,16,18,20,22,24,26,28,30,32,34,36,38,40,42,44,-1,46,48,50,52,54,56,58,60,62,64,66,68,70,-1,72,74,76,-1,78,-1,-1,-1,80,-1,-1,-1,82,84,86,88,90,92,94,96,98,100,102,104,-1,-1,-1,-1,-1,-1,-1,-1,-1,-1,-1,-1,-1,-1,-1,-1,-1,-1,-1,-1,-1,-1,-1,-1,-1,-1,-1,-1,-1,-1,-1,-1,-1,-1,-1,-1,-1,-1,-1,-1,-1,-1,-1,-1],"split_conditions":[6.2E1,4.1E1,6.4E1,1.28E2,3.03E1,3.37E-1,4.1E1,1.22E2,6.31E-1,1.27E2,3.86E1,3.4E1,9.3E1,3.7E1,4.5E1,1.15E2,1.66E2,1.96E2,7.02E-1,1.2E2,2E0,1E1,4.2112353E-3,2.6E1,9.3E1,2.74E1,1.3E2,1.61E-1,2E0,7E0,5E0,7.9E1,1.4E1,2.88E1,2E0,2.6E1,-2.9601118E-2,2.55E1,1.42E2,3E0,2.454857E-2,1.62E2,-2.2648616E-2,-7.39995E-2,-1.730536E-2,2.22E1,-2.3052508E-2,-5.590236E-3,1.9897016E-2,5.27E-1,5E0,6E0,3E0,2.49E1,1.64E-1,1.29E2,8.55E-1,7.8E1,3.12E1,4E0,3.1E1,1.0819474E-2,-8.250605E-3,3.2146454E-2,-6.495911E-3,-7.551648E-3,-6.4941585E-2,7.049231E-2,-1.0686529E-2,5.8814235E-2,9.935254E-3,-3.1775244E-2,-1.06766E-2,7.0139323E-3,1.1755497E-3,4.0507508E-3,1.4822163E-4,-6.122278E-3,1.1702478E-3,-9.360956E-3,-1.8389825E-3,4.894663E-4,-3.5809248E-3,2.2301695E-3,8.434198E-3,1.0283502E-1,1.5496847E-2,-9.639431E-3,9.8485E-3,3.6106461E-3,-1.8302148E-2,9.795762E-2,1.2017959E-3,7.173869E-2,8.289093E-3,-3.1557407E-2,2.8454294E-2,5.6291863E-2,4.7777253E-3,3.1491403E-2,-1.1320104E-2,-8.378793E-3,5.0377633E-2,-9.324495E-3,7.416986E-3],"split_indices":[2,7,2,1,5,6,7,1,6,1,5,7,1,7,7,1,4,4,6,1,0,0,0,5,1,5,4,6,0,3,0,1,4,5,0,7,0,5,1,0,0,1,0,0,0,5,0,0,0,6,0,0,0,5,6,1,6,2,5,0,3,0,0,0,0,0,0,0,0,0,0,0,0,0,0,0,0,0,0,0,0,0,0,0,0,0,0,0,0,0,0,0,0,0,0,0,0,0,0,0,0,0,0,0,0],"split_type":[0,0,0,0,0,0,0,0,0,0,0,0,0,0,0,0,0,0,0,0,0,0,0,0,0,0,0,0,0,0,0,0,0,0,0,0,0,0,0,0,0,0,0,0,0,0,0,0,0,0,0,0,0,0,0,0,0,0,0,0,0,0,0,0,0,0,0,0,0,0,0,0,0,0,0,0,0,0,0,0,0,0,0,0,0,0,0,0,0,0,0,0,0,0,0,0,0,0,0,0,0,0,0,0,0],"sum_hessian":[6.14E2,1.26E2,4.88E2,1.11E2,1.5E1,2.9E1,4.59E2,8.4E1,2.7E1,9E0,6E0,1.5E1,1.4E1,3.19E2,1.4E2,7.5E1,9E0,1.6E1,1.1E1,4E0,5E0,4E0,2E0,1.1E1,4E0,6E0,8E0,2.81E2,3.8E1,3.9E1,1.01E2,6.2E1,1.3E1,7E0,2E0,1.4E1,2E0,5E0,6E0,3E0,1E0,3E0,2E0,3E0,1E0,9E0,2E0,1E0,3E0,4E0,2E0,5E0,3E0,2.7E1,2.54E2,5E0,3.3E1,1.5E1,2.4E1,2.3E1,7.8E1,4E0,5.8E1,8E0,5E0,2E0,5E0,1E0,1E0,6E0,8E0,1E0,4E0,3E0,3E0,2E0,1E0,2E0,1E0,4E0,5E0,2E0,2E0,1E0,1E0,4E0,1E0,2E0,1E0,5E0,2.2E1,1E0,2.53E2,3E0,2E0,3.1E1,2E0,8E0,7E0,6E0,1.8E1,1.5E1,8E0,5.3E1,2.5E1],"tree_param":{"num_deleted":"0","num_feature":"8","num_nodes":"105","size_leaf_vector":"1"}},{"base_weights":[7.1628724E-4,-1.629658E-4,3.165489E-2,8.471627E-4,-7.48921E-2,-2.6939077E-2,8.673165E-2,-5.371794E-4,2.5916617E-2,-6.984295E-2,1.6548768E-2,8.44515E-3,-5.9175618E-2,-1.3952995E-2,1.17491975E-1,3.4620094E-3,-1.2279293E-2,6.286662E-2,1.0331111E-2,6.2384218E-2,-1.5024426E-2,-2.4735473E-2,8.580629E-3,-1.2690126E-4,-6.1519467E-3,3.8020186E-2,9.306023E-3,5.54321E-4,8.193264E-2,-4.660686E-2,8.453686E-3,3.4185935E-2,2.70513E-2,-3.027188E-2,2.6442276E-2,3.012693E-3,2.2945225E-2,2.239399E-3,-5.4325927E-3,4.0374897E-2,-5.842006E-3,-2.5757337E-3,-4.346679E-2,1.2046657E-2,-5.6675514E-3,-5.905629E-4,1.5826594E-2,3.5785811E-3,-1.9471318E-2,1.0510962E-2,-1.6659897E-2],"categories":[],"categories_nodes":[],"categories_segments":[],"categories_sizes":[],"default_left":[0,0,0,0,0,0,0,0,0,0,0,0,0,0,0,0,0,0,0,0,0,0,0,0,0,0,0,0,0,0,0,0,0,0,0,0,0,0,0,0,0,0,0,0,0,0,0,0,0,0,0],"id":21,"left_children":[1,3,5,7,9,11,13,15,17,-1,19,-1,21,23,25,27,29,31,33,35,-1,-1,-1,-1,-1,-1,-1,37,39,41,43,45,-1,47,49,-1,-1,-1,-1,-1,-1,-1,-1,-1,-1,-1,-1,-1,-1,-1,-1],"loss_changes":[1.673492E-2,4.527958E-2,5.7198294E-2,2.0559106E-2,1.1937377E-1,1.7648898E-2,2.9513203E-2,2.6433429E-2,1.7202938E-2,0E0,2.1448439E-2,0E0,1.4616953E-2,2.5733182E-4,1.6628951E-3,9.5785215E-2,1.0216892E-1,3.9653927E-3,1.5846174E-2,2.1839794E-3,0E0,0E0,0E0,0E0,0E0,0E0,0E0,5.2495956E-2,8.2706675E-2,2.0054343E-1,7.877989E-2,4.132048E-3,0E0,1.100478E-2,1.3922475E-2,0E0,0E0,0E0,0E0,0E0,0E0,0E0,0E0,0E0,0E0,0E0,0E0,0E0,0E0,0E0,0E0],"parents":[2147483647,0,0,1,1,2,2,3,3,4,4,5,5,6,6,7,7,8,8,10,10,12,12,13,13,14,14,15,15,16,16,17,17,18,18,19,19,27,27,28,28,29,29,30,30,31,31,33,33,34,34],"right_children":[2,4,6,8,10,12,14,16,18,-1,20,-1,22,24,26,28,30,32,34,36,-1,-1,-1,-1,-1,-1,-1,38,40,42,44,46,-1,48,50,-1,-1,-1,-1,-1,-1,-1,-1,-1,-1,-1,-1,-1,-1,-1,-1],"split_conditions":[9.6E1,9.4E1,3.8E1,1.81E2,1.36E2,2.9E1,1.04E2,1.37E2,1.86E2,-6.984295E-2,1.48E2,8.44515E-3,4E1,6E0,9E0,1.34E2,3.31E-1,3.58E-1,7E1,1.41E2,-1.5024426E-2,-2.4735473E-2,8.580629E-3,-1.2690126E-4,-6.1519467E-3,3.8020186E-2,9.306023E-3,3.51E1,5.45E-1,2.5E1,5.59E-1,7E0,2.70513E-2,1.9E2,5.79E2,3.012693E-3,2.2945225E-2,2.239399E-3,-5.4325927E-3,4.0374897E-2,-5.842006E-3,-2.5757337E-3,-4.346679E-2,1.2046657E-2,-5.6675514E-3,-5.905629E-4,1.5826594E-2,3.5785811E-3,-1.9471318E-2,1.0510962E-2,-1.6659897E-2],"split_indices":[2,2,7,1,1,7,1,1,1,0,1,0,3,0,0,1,6,6,2,1,0,0,0,0,0,0,0,5,6,3,6,3,0,1,4,0,0,0,0,0,0,0,0,0,0,0,0,0,0,0,0],"split_type":[0,0,0,0,0,0,0,0,0,0,0,0,0,0,0,0,0,0,0,0,0,0,0,0,0,0,0,0,0,0,0,0,0,0,0,0,0,0,0,0,0,0,0,0,0,0,0,0,0,0,0],"sum_hessian":[6.14E2,5.98E2,1.6E1,5.91E2,7E0,8E0,8E0,5.61E2,3E1,2E0,5E0,3E0,5E0,2E0,6E0,4.19E2,1.42E2,8E0,2.2E1,3E0,2E0,4E0,1E0,1E0,1E0,5E0,1E0,4.05E2,1.4E1,5.3E1,8.9E1,5E0,3E0,6E0,1.6E1,1E0,2E0,2.96E2,1.09E2,9E0,5E0,3.9E1,1.4E1,4.1E1,4.8E1,2E0,3E0,3E0,3E0,1.5E1,1E0],"tree_param":{"num_deleted":"0","num_feature":"8","num_nodes":"51","size_leaf_vector":"1"}},{"base_weights":[4.7920787E-4,-9.92177E-3,3.1795043E-3,-3.4883544E-3,-5.4335568E-2,4.1397594E-2,6.8010815E-4,1.4330507E-2,-2.7545389E-2,-4.705648E-3,-1.1747323E-1,-1.5184539E-2,8.5559495E-2,7.4399067E-3,-5.4934844E-3,-1.3007163E-2,7.6490626E-2,-3.290191E-2,3.3631656E-2,3.267937E-2,-3.5075556E-2,-1.7280217E-1,4.1698217E-3,-5.9114182E-3,-1.4164654E-2,-2.8698737E-2,1.3555865E-1,1.2032784E-2,-4.4770867E-2,-7.707064E-2,3.5208259E-3,3.1633887E-2,-4.856312E-2,7.6131344E-2,4.2694394E-2,-1.459354E-2,-6.435235E-2,6.631932E-3,2.0530371E-2,-9.376927E-3,-1.7294563E-2,-6.407817E-2,-2.2322917E-2,-1.2688965E-2,1.8650876E-2,-7.1282586E-5,-1.2860971E-2,3.0121809E-2,2.0656757E-1,5.297572E-3,5.768028E-2,-7.506051E-2,2.473744E-3,1.5643967E-2,-1.2429705E-1,9.742257E-2,-5.7886745E-4,-2.4241174E-3,3.9679896E-2,-9.093222E-3,-4.2412058E-2,3.40238E-2,6.29697E-3,-1.3296102E-4,-1.6566107E-2,-2.8705444E-2,8.994756E-3,3.60533E-3,2.492198E-4,-4.056048E-3,4.5791568E-4,-4.2532245E-3,1.0606188E-4,1.5597343E-3,6.8331603E-3,-6.867471E-3,1.8705418E-2,7.85378E-2,1.3700962E-2,-2.4440032E-3,7.996097E-3,3.7147935E-2,2.7539712E-4,-1.0086966E-2,-3.5418186E-2,1.2069825E-2,-8.468463E-3,-2.3292324E-2,1.0390729E-2,-4.3714516E-2,-3.8716046E-3,5.9813384E-2,-7.2051967E-3,1.0219377E-2,-2.0623168E-3],"categories":[],"categories_nodes":[],"categories_segments":[],"categories_sizes":[],"default_left":[0,0,0,0,0,0,0,0,0,0,0,0,0,0,0,0,0,0,0,0,0,0,0,0,0,0,0,0,0,0,0,0,0,0,0,0,0,0,0,0,0,0,0,0,0,0,0,0,0,0,0,0,0,0,0,0,0,0,0,0,0,0,0,0,0,0,0,0,0,0,0,0,0,0,0,0,0,0,0,0,0,0,0,0,0,0,0,0,0,0,0,0,0,0,0],"id":22,"left_children":[1,3,5,7,9,11,13,15,17,19,21,23,25,27,29,31,33,35,-1,37,39,41,-1,43,-1,45,47,49,51,53,55,57,59,-1,61,63,65,67,-1,69,-1,-1,-1,71,73,-1,-1,75,77,79,81,83,85,87,89,91,93,-1,-1,-1,-1,-1,-1,-1,-1,-1,-1,-1,-1,-1,-1,-1,-1,-1,-1,-1,-1,-1,-1,-1,-1,-1,-1,-1,-1,-1,-1,-1,-1,-1,-1,-1,-1,-1,-1],"loss_changes":[1.7304264E-2,3.609848E-2,4.668217E-2,4.8405662E-2,4.9583487E-2,7.626243E-2,1.9237703E-2,1.1145026E-1,3.9594542E-2,1.2500044E-2,5.3282805E-2,3.8792684E-3,1.01008214E-1,5.3294208E-2,1.5576905E-1,7.454998E-2,1.0899365E-1,2.612377E-2,0E0,4.2028027E-3,2.9400033E-3,4.1745156E-3,0E0,2.234325E-3,0E0,2.4097771E-3,8.362128E-2,6.2105887E-2,2.5944084E-2,1.2016612E-1,8.282459E-2,8.4996186E-2,3.9759137E-2,0E0,2.5247753E-2,1.7796904E-2,5.3116523E-2,1.1499364E-4,0E0,2.0133684E-4,0E0,0E0,0E0,1.9914343E-4,4.809769E-5,0E0,0E0,1.16789155E-2,5.024311E-2,5.132388E-2,9.7506136E-2,1.5630309E-2,1.04099E-2,2.0405658E-2,4.1063637E-2,1.1622157E-1,4.5380592E-2,0E0,0E0,0E0,0E0,0E0,0E0,0E0,0E0,0E0,0E0,0E0,0E0,0E0,0E0,0E0,0E0,0E0,0E0,0E0,0E0,0E0,0E0,0E0,0E0,0E0,0E0,0E0,0E0,0E0,0E0,0E0,0E0,0E0,0E0,0E0,0E0,0E0,0E0],"parents":[2147483647,0,0,1,1,2,2,3,3,4,4,5,5,6,6,7,7,8,8,9,9,10,10,11,11,12,12,13,13,14,14,15,15,16,16,17,17,19,19,20,20,21,21,23,23,25,25,26,26,27,27,28,28,29,29,30,30,31,31,32,32,34,34,35,35,36,36,37,37,39,39,43,43,44,44,47,47,48,48,49,49,50,50,51,51,52,52,53,53,54,54,55,55,56,56],"right_children":[2,4,6,8,10,12,14,16,18,20,22,24,26,28,30,32,34,36,-1,38,40,42,-1,44,-1,46,48,50,52,54,56,58,60,-1,62,64,66,68,-1,70,-1,-1,-1,72,74,-1,-1,76,78,80,82,84,86,88,90,92,94,-1,-1,-1,-1,-1,-1,-1,-1,-1,-1,-1,-1,-1,-1,-1,-1,-1,-1,-1,-1,-1,-1,-1,-1,-1,-1,-1,-1,-1,-1,-1,-1,-1,-1,-1,-1,-1,-1],"split_conditions":[6.2E1,4.1E1,6.4E1,5.5E1,3.03E1,1.02E2,1.19E2,1.24E2,4E1,1.27E2,3.86E1,2E1,2.3E1,9E1,1.24E2,2.63E-1,1.29E2,1.18E2,3.3631656E-2,1.2E2,2E0,3E0,4.1698217E-3,2.74E1,-1.4164654E-2,1.1E1,2.31E-1,8.2E1,9.8E1,2.86E-1,1.25E2,3.03E1,1.2E2,7.6131344E-2,2.4E1,2.8E1,1.42E2,1E0,2.0530371E-2,1.62E2,-1.7294563E-2,-6.407817E-2,-2.2322917E-2,2.6E1,5E0,-7.1282586E-5,-1.2860971E-2,4E0,6E0,3.1E1,4E0,4.3E1,2.4E-1,1.2E2,4.6E1,2.9E1,2.69E1,-2.4241174E-3,3.9679896E-2,-9.093222E-3,-4.2412058E-2,3.40238E-2,6.29697E-3,-1.3296102E-4,-1.6566107E-2,-2.8705444E-2,8.994756E-3,3.60533E-3,2.492198E-4,-4.056048E-3,4.5791568E-4,-4.2532245E-3,1.0606188E-4,1.5597343E-3,6.8331603E-3,-6.867471E-3,1.8705418E-2,7.85378E-2,1.3700962E-2,-2.4440032E-3,7.996097E-3,3.7147935E-2,2.7539712E-4,-1.0086966E-2,-3.5418186E-2,1.2069825E-2,-8.468463E-3,-2.3292324E-2,1.0390729E-2,-4.3714516E-2,-3.8716046E-3,5.9813384E-2,-7.2051967E-3,1.0219377E-2,-2.0623168E-3],"split_indices":[2,7,2,2,5,1,1,1,7,1,5,3,7,2,1,6,1,1,0,1,0,0,0,5,0,3,6,2,2,6,1,5,1,0,7,3,1,0,0,1,0,0,0,5,0,0,0,0,0,7,0,7,6,1,7,3,5,0,0,0,0,0,0,0,0,0,0,0,0,0,0,0,0,0,0,0,0,0,0,0,0,0,0,0,0,0,0,0,0,0,0,0,0,0,0],"split_type":[0,0,0,0,0,0,0,0,0,0,0,0,0,0,0,0,0,0,0,0,0,0,0,0,0,0,0,0,0,0,0,0,0,0,0,0,0,0,0,0,0,0,0,0,0,0,0,0,0,0,0,0,0,0,0,0,0,0,0,0,0,0,0,0,0,0,0,0,0,0,0,0,0,0,0,0,0,0,0,0,0,0,0,0,0,0,0,0,0,0,0,0,0,0,0],"sum_hessian":[6.14E2,1.26E2,4.88E2,1.11E2,1.5E1,2.9E1,4.59E2,6.4E1,4.7E1,9E0,6E0,1.3E1,1.6E1,2.19E2,2.4E2,4.5E1,1.9E1,4.6E1,1E0,4E0,5E0,4E0,2E0,1.1E1,2E0,5E0,1.1E1,2.02E2,1.7E1,2.6E1,2.14E2,2E1,2.5E1,2E0,1.7E1,3E1,1.6E1,3E0,1E0,3E0,2E0,2E0,2E0,9E0,2E0,2E0,3E0,5E0,6E0,1.77E2,2.5E1,1E1,7E0,9E0,1.7E1,8E0,2.06E2,1.5E1,5E0,2.2E1,3E0,3E0,1.4E1,2.3E1,7E0,1.2E1,4E0,1E0,2E0,2E0,1E0,8E0,1E0,1E0,1E0,2E0,3E0,4E0,2E0,1.09E2,6.8E1,1.1E1,1.4E1,6E0,4E0,3E0,4E0,1E0,8E0,1.4E1,3E0,4E0,4E0,3.1E1,1.75E2],"tree_param":{"num_deleted":"0","num_feature":"8","num_nodes":"95","size_leaf_vector":"1"}},{"base_weights":[5.0334923E-4,-3.646949E-3,7.6631415E-3,-7.2338975E-5,-4.231554E-2,8.602828E-2,4.3927315E-3,-4.9442416E-3,2.1557052E-2,-6.51371E-2,2.577942E-2,-2.2031593E-3,1.5705405E-1,6.9456394E-3,-4.9402323E-2,1.8305719E-3,-7.764346E-2,1.0707342E-1,9.596239E-3,-2.3539959E-2,-1.3647203E-1,3.7371952E-2,-2.141444E-3,3.5879586E-3,-4.689538E-3,1.2847406E-2,5.247157E-2,-1.3034993E-3,3.5406575E-2,1.5536675E-2,-9.528443E-2,-2.5061427E-3,5.5947978E-2,-1.2435007E-1,6.0223527E-2,1.23450994E-1,-1.135443E-3,-1.9882686E-2,4.5270618E-2,-3.6254448E-3,-5.9445657E-2,-2.4707772E-2,-4.94625E-2,1.3933772E-2,-1.0073419E-2,2.5931705E-2,-1.0971352E-2,6.090507E-2,2.3445742E-2,-5.1840143E-3,2.8060868E-2,-4.1098364E-2,-7.90947E-3,2.189896E-3,-9.158175E-3,-3.247005E-3,3.0409241E-2,6.0720374E-3,-5.3230546E-2,2.1074624E-3,5.691232E-2,1.4730478E-2,4.3011133E-2,-2.9185688E-2,6.9722575E-3,2.7469851E-2,-9.117769E-3,4.8510926E-3,-4.663383E-3,9.089425E-3,-2.5036206E-2,-8.9345835E-3,-2.1839144E-3,-1.4043403E-3,7.3234527E-3,-4.79543E-3,1.8922739E-2,-2.4698118E-2,-7.081155E-4,1.3337034E-2,-9.5080435E-3,1.1538327E-2,3.5321296E-3,4.0409896E-3,-7.600251E-3],"categories":[],"categories_nodes":[],"categories_segments":[],"categories_sizes":[],"default_left":[0,0,0,0,0,0,0,0,0,0,0,0,0,0,0,0,0,0,0,0,0,0,0,0,0,0,0,0,0,0,0,0,0,0,0,0,0,0,0,0,0,0,0,0,0,0,0,0,0,0,0,0,0,0,0,0,0,0,0,0,0,0,0,0,0,0,0,0,0,0,0,0,0,0,0,0,0,0,0,0,0,0,0,0,0],"id":23,"left_children":[1,3,5,7,9,11,13,15,17,19,21,23,25,27,29,31,33,35,37,39,41,-1,43,-1,-1,-1,-1,45,47,49,51,53,55,57,59,61,-1,63,65,67,69,71,-1,73,-1,75,77,-1,79,-1,81,-1,83,-1,-1,-1,-1,-1,-1,-1,-1,-1,-1,-1,-1,-1,-1,-1,-1,-1,-1,-1,-1,-1,-1,-1,-1,-1,-1,-1,-1,-1,-1,-1,-1],"loss_changes":[1.8302841E-2,5.390474E-2,5.7542764E-2,3.783129E-2,5.2962303E-2,5.6746364E-2,3.0281903E-2,1.4445156E-1,6.648029E-2,7.09707E-2,2.509243E-2,1.1379042E-3,2.7053803E-3,4.91148E-2,3.127579E-2,6.327229E-2,1.6847129E-1,1.4991954E-2,6.2947005E-2,1.1940242E-2,2.4496228E-2,0E0,4.5106723E-3,0E0,0E0,0E0,0E0,4.3203373E-2,8.94638E-2,2.539908E-3,2.0782962E-2,6.891515E-2,6.1747044E-2,1.4942735E-1,4.688602E-2,3.3272654E-3,0E0,1.1241133E-1,9.736039E-2,3.0827469E-3,1.5456097E-2,4.849478E-5,0E0,1.2845261E-3,0E0,6.795707E-2,7.415311E-2,0E0,5.3542927E-2,0E0,2.2472604E-4,0E0,1.4588411E-3,0E0,0E0,0E0,0E0,0E0,0E0,0E0,0E0,0E0,0E0,0E0,0E0,0E0,0E0,0E0,0E0,0E0,0E0,0E0,0E0,0E0,0E0,0E0,0E0,0E0,0E0,0E0,0E0,0E0,0E0,0E0,0E0],"parents":[2147483647,0,0,1,1,2,2,3,3,4,4,5,5,6,6,7,7,8,8,9,9,10,10,11,11,12,12,13,13,14,14,15,15,16,16,17,17,18,18,19,19,20,20,22,22,27,27,28,28,29,29,30,30,31,31,32,32,33,33,34,34,35,35,37,37,38,38,39,39,40,40,41,41,43,43,45,45,46,46,48,48,50,50,52,52],"right_children":[2,4,6,8,10,12,14,16,18,20,22,24,26,28,30,32,34,36,38,40,42,-1,44,-1,-1,-1,-1,46,48,50,52,54,56,58,60,62,-1,64,66,68,70,72,-1,74,-1,76,78,-1,80,-1,82,-1,84,-1,-1,-1,-1,-1,-1,-1,-1,-1,-1,-1,-1,-1,-1,-1,-1,-1,-1,-1,-1,-1,-1,-1,-1,-1,-1,-1,-1,-1,-1,-1,-1],"split_conditions":[8.8E1,6.7E1,9.2E1,1.45E2,3.62E1,2.5E1,4.61E1,1.37E2,1.47E2,1.06E2,3.67E1,6.5E1,1E0,3.8E1,3.36E-1,1.3E2,6.12E-1,6.31E-1,4.1E1,7.42E-1,2.88E1,3.7371952E-2,4.07E1,3.5879586E-3,-4.689538E-3,1.2847406E-2,5.247157E-2,2.69E-1,5.2E1,1E0,4.79E1,3.41E1,2.81E1,2.74E1,3.64E1,3.13E1,-1.135443E-3,2.95E-1,5.4E1,1.9E1,8.1E1,2E0,-4.94625E-2,6.5E1,-1.0073419E-2,1.7E-1,3.4E-1,6.090507E-2,4.6E1,-5.1840143E-3,1.23E2,-4.1098364E-2,1.63E2,2.189896E-3,-9.158175E-3,-3.247005E-3,3.0409241E-2,6.0720374E-3,-5.3230546E-2,2.1074624E-3,5.691232E-2,1.4730478E-2,4.3011133E-2,-2.9185688E-2,6.9722575E-3,2.7469851E-2,-9.117769E-3,4.8510926E-3,-4.663383E-3,9.089425E-3,-2.5036206E-2,-8.9345835E-3,-2.1839144E-3,-1.4043403E-3,7.3234527E-3,-4.79543E-3,1.8922739E-2,-2.4698118E-2,-7.081155E-4,1.3337034E-2,-9.5080435E-3,1.1538327E-2,3.5321296E-3,4.0409896E-3,-7.600251E-3],"split_indices":[4,4,4,1,5,7,5,1,1,1,5,2,0,3,6,1,6,6,7,6,5,0,5,0,0,0,0,6,2,0,5,5,5,5,5,5,0,6,7,3,1,0,0,2,0,6,6,0,3,0,1,0,1,0,0,0,0,0,0,0,0,0,0,0,0,0,0,0,0,0,0,0,0,0,0,0,0,0,0,0,0,0,0,0,0],"split_type":[0,0,0,0,0,0,0,0,0,0,0,0,0,0,0,0,0,0,0,0,0,0,0,0,0,0,0,0,0,0,0,0,0,0,0,0,0,0,0,0,0,0,0,0,0,0,0,0,0,0,0,0,0,0,0,0,0,0,0,0,0,0,0,0,0,0,0,0,0,0,0,0,0,0,0,0,0,0,0,0,0,0,0,0,0],"sum_hessian":[6.14E2,3.89E2,2.25E2,3.57E2,3.2E1,8E0,2.17E2,2.92E2,6.5E1,2.4E1,8E0,4E0,4E0,2.08E2,9E0,2.68E2,2.4E1,7E0,5.8E1,1.6E1,8E0,1E0,7E0,2E0,2E0,1E0,3E0,1.62E2,4.6E1,4E0,5E0,2.49E2,1.9E1,1.8E1,6E0,6E0,1E0,3.2E1,2.6E1,1.1E1,5E0,2E0,6E0,5E0,2E0,4.2E1,1.2E2,2E0,4.4E1,1E0,3E0,3E0,2E0,1.85E2,6.4E1,8E0,1.1E1,5E0,1.3E1,5E0,1E0,2E0,4E0,1.1E1,2.1E1,1.6E1,1E1,4E0,7E0,1E0,4E0,1E0,1E0,2E0,3E0,2E1,2.2E1,1.2E1,1.08E2,3.2E1,1.2E1,1E0,2E0,1E0,1E0],"tree_param":{"num_deleted":"0","num_feature":"8","num_nodes":"85","size_leaf_vector":"1"}},{"base_weights":[5.549127E-4,-9.52524E-3,3.4639214E-3,-1.296638E-2,2.7687268E-2,4.4622928E-2,1.8493313E-3,-9.472367E-3,-7.1510546E-2,5.4717075E-2,-2.1097874E-2,-1.0940434E-2,1.1544468E-1,-1.0064163E-2,5.05173E-3,-1.648375E-3,-2.5274744E-2,-7.147265E-3,-2.8747924E-2,1.1952489E-2,2.8348062E-2,-1.08180735E-2,8.9712004E-4,7.4101925E-2,-5.2094057E-2,-2.3498436E-2,1.6567546E-1,-1.8893246E-3,-7.4547954E-2,3.6546744E-2,2.668331E-4,-6.1762854E-3,4.774728E-2,-1.1879803E-2,-3.6828272E-2,-4.8156963E-3,1.599427E-3,-3.953568E-3,7.162315E-3,-4.31921E-3,4.722914E-3,-1.29592065E-2,5.0292797E-2,-2.5909187E-2,-2.6276765E-2,-1.1938855E-2,1.3645578E-3,6.577809E-2,2.5220392E-2,9.04237E-3,-6.5652356E-2,-1.3359155E-1,-3.0797012E-3,-5.5245694E-2,7.994469E-2,2.3002347E-3,-4.390609E-2,3.194853E-3,-6.7236857E-3,-7.474949E-3,3.2542273E-2,-5.750248E-3,4.3430147E-4,-5.427611E-3,-1.5664946E-2,-1.9968832E-3,2.177775E-4,-5.3137145E-3,-5.1792857E-4,-1.0156586E-3,-9.053372E-3,-3.2740918E-3,2.0845441E-2,7.527981E-3,-3.263157E-2,-4.57859E-2,-5.7676435E-3,5.200346E-3,-1.5772596E-2,-2.040031E-2,6.1697096E-6,7.81557E-2,1.38163455E-2,-1.8634578E-3,4.5147063E-3,-3.7878305E-2,-8.357614E-3],"categories":[],"categories_nodes":[],"categories_segments":[],"categories_sizes":[],"default_left":[0,0,0,0,0,0,0,0,0,0,0,0,0,0,0,0,0,0,0,0,0,0,0,0,0,0,0,0,0,0,0,0,0,0,0,0,0,0,0,0,0,0,0,0,0,0,0,0,0,0,0,0,0,0,0,0,0,0,0,0,0,0,0,0,0,0,0,0,0,0,0,0,0,0,0,0,0,0,0,0,0,0,0,0,0,0,0],"id":24,"left_children":[1,3,5,7,9,11,13,15,17,19,21,23,25,27,29,31,33,35,-1,37,-1,-1,39,41,43,45,47,49,51,53,55,57,59,61,63,-1,-1,65,-1,-1,-1,67,-1,-1,69,-1,-1,-1,-1,71,73,75,77,79,81,83,85,-1,-1,-1,-1,-1,-1,-1,-1,-1,-1,-1,-1,-1,-1,-1,-1,-1,-1,-1,-1,-1,-1,-1,-1,-1,-1,-1,-1,-1,-1],"loss_changes":[1.8066796E-2,1.8030383E-2,3.168293E-2,2.5300993E-2,1.6978249E-2,7.2094716E-2,1.7638803E-2,1.4918498E-2,1.0270443E-2,1.24787595E-2,1.6778363E-3,4.235808E-2,5.9726886E-2,5.1519327E-2,5.484519E-2,1.8634949E-2,5.752843E-3,4.1895197E-4,0E0,1.0425407E-3,0E0,0E0,9.0784096E-4,3.4747563E-2,4.808683E-3,1.5523207E-3,7.8047663E-3,6.1932996E-2,4.6005737E-2,1.956296E-1,2.8574347E-2,2.1000633E-2,3.3591345E-2,1.9702788E-3,5.1099528E-3,0E0,0E0,4.277388E-5,0E0,0E0,0E0,1.2959488E-4,0E0,0E0,4.3364335E-4,0E0,0E0,0E0,0E0,9.2428744E-2,5.359726E-2,1.0122843E-2,6.973842E-3,1.1280432E-2,1.8995199E-1,3.3081923E-2,1.498466E-2,0E0,0E0,0E0,0E0,0E0,0E0,0E0,0E0,0E0,0E0,0E0,0E0,0E0,0E0,0E0,0E0,0E0,0E0,0E0,0E0,0E0,0E0,0E0,0E0,0E0,0E0,0E0,0E0,0E0,0E0],"parents":[2147483647,0,0,1,1,2,2,3,3,4,4,5,5,6,6,7,7,8,8,9,9,10,10,11,11,12,12,13,13,14,14,15,15,16,16,17,17,19,19,22,22,23,23,24,24,25,25,26,26,27,27,28,28,29,29,30,30,31,31,32,32,33,33,34,34,37,37,41,41,44,44,49,49,50,50,51,51,52,52,53,53,54,54,55,55,56,56],"right_children":[2,4,6,8,10,12,14,16,18,20,22,24,26,28,30,32,34,36,-1,38,-1,-1,40,42,44,46,48,50,52,54,56,58,60,62,64,-1,-1,66,-1,-1,-1,68,-1,-1,70,-1,-1,-1,-1,72,74,76,78,80,82,84,86,-1,-1,-1,-1,-1,-1,-1,-1,-1,-1,-1,-1,-1,-1,-1,-1,-1,-1,-1,-1,-1,-1,-1,-1,-1,-1,-1,-1,-1,-1],"split_conditions":[2.64E1,1.52E2,2.72E1,1.41E2,2.56E1,1.4E1,3.04E1,1.6E1,2.2E1,8E0,1.7E2,1.09E2,2E0,1.5E2,3.19E1,1.32E2,2.5E1,2E0,-2.8747924E-2,1.63E2,2.8348062E-2,-1.08180735E-2,2E0,2E0,3.7E1,1E0,4E0,2.99E1,1.63E2,2.5E1,3.3E2,2.3E1,1.7E-1,4.51E-1,2.2E1,-4.8156963E-3,1.599427E-3,1E0,7.162315E-3,-4.31921E-3,4.722914E-3,1E0,5.0292797E-2,-2.5909187E-2,2E0,-1.1938855E-2,1.3645578E-3,6.577809E-2,2.5220392E-2,6E0,6.1E1,2.98E1,7.5E1,1.26E2,2.6E1,4.87E-1,3.6E2,3.194853E-3,-6.7236857E-3,-7.474949E-3,3.2542273E-2,-5.750248E-3,4.3430147E-4,-5.427611E-3,-1.5664946E-2,-1.9968832E-3,2.177775E-4,-5.3137145E-3,-5.1792857E-4,-1.0156586E-3,-9.053372E-3,-3.2740918E-3,2.0845441E-2,7.527981E-3,-3.263157E-2,-4.57859E-2,-5.7676435E-3,5.200346E-3,-1.5772596E-2,-2.040031E-2,6.1697096E-6,7.81557E-2,1.38163455E-2,-1.8634578E-3,4.5147063E-3,-3.7878305E-2,-8.357614E-3],"split_indices":[5,1,5,1,5,4,5,3,7,0,4,1,0,1,5,1,7,0,0,1,0,0,0,0,7,0,0,5,1,7,4,5,6,6,3,0,0,0,0,0,0,0,0,0,0,0,0,0,0,0,2,5,2,1,7,6,4,0,0,0,0,0,0,0,0,0,0,0,0,0,0,0,0,0,0,0,0,0,0,0,0,0,0,0,0,0,0],"split_type":[0,0,0,0,0,0,0,0,0,0,0,0,0,0,0,0,0,0,0,0,0,0,0,0,0,0,0,0,0,0,0,0,0,0,0,0,0,0,0,0,0,0,0,0,0,0,0,0,0,0,0,0,0,0,0,0,0,0,0,0,0,0,0,0,0,0,0,0,0,0,0,0,0,0,0,0,0,0,0,0,0,0,0,0,0,0,0],"sum_hessian":[6.14E2,1.37E2,4.77E2,1.26E2,1.1E1,1.7E1,4.6E2,1.2E2,6E0,7E0,4E0,1E1,7E0,9.7E1,3.63E2,8.1E1,3.9E1,2E0,4E0,4E0,3E0,2E0,2E0,3E0,7E0,2E0,5E0,8.7E1,1E1,4.7E1,3.16E2,7.5E1,6E0,1.9E1,2E1,1E0,1E0,2E0,2E0,1E0,1E0,2E0,1E0,2E0,5E0,1E0,1E0,2E0,3E0,7.5E1,1.2E1,5E0,5E0,1.5E1,3.2E1,3.03E2,1.3E1,3.7E1,3.8E1,3E0,3E0,1.2E1,7E0,1E1,1E1,1E0,1E0,1E0,1E0,1E0,4E0,5.7E1,1.8E1,4E0,8E0,4E0,1E0,4E0,1E0,1.2E1,3E0,4E0,2.8E1,1.82E2,1.21E2,1E0,1.2E1],"tree_param":{"num_deleted":"0","num_feature":"8","num_nodes":"87","size_leaf_vector":"1"}},{"base_weights":[4.4327995E-4,-1.8060791E-5,5.673046E-2,1.3675392E-3,-1.6674357E-2,1.9329917E-2,3.888014E-3,9.693084E-3,-3.0464458E-3,-6.295594E-2,4.868009E-3,1.2706484E-4,4.0883865E-2,-2.8768893E-2,2.6326673E-3,-9.102073E-3,-1.4221972E-1,7.9708815E-2,-2.6518494E-2,8.209763E-3,-4.0938124E-2,-9.155811E-3,7.643607E-2,5.2045304E-3,-4.3336403E-2,5.3085122E-2,-3.0850652E-3,4.831716E-2,-5.543442E-2,-7.8321425E-3,-4.8066244E-2,1.3028899E-1,3.0708432E-3,-8.423467E-2,2.072411E-2,1.0130787E-3,4.679256E-2,-4.643509E-3,-4.1904453E-2,2.424809E-3,-2.4039157E-2,-3.0912058E-3,4.101417E-2,-1.069421E-2,1.9090364E-2,-1.6643744E-2,1.4665649E-2,2.2218231E-2,-3.21047E-2,-2.8430255E-2,8.571098E-6,-2.7669654E-3,2.6925547E-2,-1.8371643E-2,-3.961873E-3,4.9229402E-2,1.2534196E-2,-1.0874015E-2,6.588574E-3,-3.6243524E-3,-4.270472E-2,1.8726114E-2,-1.3582292E-2],"categories":[],"categories_nodes":[],"categories_segments":[],"categories_sizes":[],"default_left":[0,0,0,0,0,0,0,0,0,0,0,0,0,0,0,0,0,0,0,0,0,0,0,0,0,0,0,0,0,0,0,0,0,0,0,0,0,0,0,0,0,0,0,0,0,0,0,0,0,0,0,0,0,0,0,0,0,0,0,0,0,0,0],"id":25,"left_children":[1,3,5,7,9,-1,-1,11,13,15,17,19,21,23,25,27,29,31,33,35,37,39,41,43,45,47,49,51,53,-1,-1,55,57,59,61,-1,-1,-1,-1,-1,-1,-1,-1,-1,-1,-1,-1,-1,-1,-1,-1,-1,-1,-1,-1,-1,-1,-1,-1,-1,-1,-1,-1],"loss_changes":[1.597108E-2,1.4124049E-2,8.506719E-4,2.0792618E-2,4.716616E-2,0E0,0E0,5.8475643E-2,5.4125592E-2,6.2735416E-2,7.9630464E-2,5.045564E-2,8.2534805E-2,3.3384398E-2,8.7859765E-2,2.9282115E-2,8.358002E-3,3.8363516E-2,6.718559E-2,9.016727E-2,6.0687535E-2,2.511763E-2,1.4257827E-1,5.2394927E-2,5.5343963E-2,1.120304E-1,7.822031E-2,1.2748629E-2,6.619189E-4,0E0,0E0,1.1098154E-2,4.5098006E-3,4.4404976E-2,4.1352462E-2,0E0,0E0,0E0,0E0,0E0,0E0,0E0,0E0,0E0,0E0,0E0,0E0,0E0,0E0,0E0,0E0,0E0,0E0,0E0,0E0,0E0,0E0,0E0,0E0,0E0,0E0,0E0,0E0],"parents":[2147483647,0,0,1,1,2,2,3,3,4,4,7,7,8,8,9,9,10,10,11,11,12,12,13,13,14,14,15,15,16,16,17,17,18,18,19,19,20,20,21,21,22,22,23,23,24,24,25,25,26,26,27,27,28,28,31,31,32,32,33,33,34,34],"right_children":[2,4,6,8,10,-1,-1,12,14,16,18,20,22,24,26,28,30,32,34,36,38,40,42,44,46,48,50,52,54,-1,-1,56,58,60,62,-1,-1,-1,-1,-1,-1,-1,-1,-1,-1,-1,-1,-1,-1,-1,-1,-1,-1,-1,-1,-1,-1,-1,-1,-1,-1,-1,-1],"split_conditions":[1.4E1,1E1,1.7E1,2.79E-1,2.52E-1,1.9329917E-2,3.888014E-3,6E0,3.43E-1,1.26E2,7.4E1,3.79E1,1.78E-1,2E0,3.85E-1,3.12E1,1.83E-1,4.43E-1,5.14E-1,3.71E1,3.4E1,9E0,2.79E1,2.7E1,3.6E1,8E0,3.95E-1,1.07E2,4.9E1,-7.8321425E-3,-4.8066244E-2,2.98E1,1.2E1,2.86E-1,9.26E-1,1.0130787E-3,4.679256E-2,-4.643509E-3,-4.1904453E-2,2.424809E-3,-2.4039157E-2,-3.0912058E-3,4.101417E-2,-1.069421E-2,1.9090364E-2,-1.6643744E-2,1.4665649E-2,2.2218231E-2,-3.21047E-2,-2.8430255E-2,8.571098E-6,-2.7669654E-3,2.6925547E-2,-1.8371643E-2,-3.961873E-3,4.9229402E-2,1.2534196E-2,-1.0874015E-2,6.588574E-3,-3.6243524E-3,-4.270472E-2,1.8726114E-2,-1.3582292E-2],"split_indices":[0,0,0,6,6,0,0,0,6,1,2,5,6,0,6,5,6,6,6,5,7,0,5,7,3,0,6,1,3,0,0,5,0,6,6,0,0,0,0,0,0,0,0,0,0,0,0,0,0,0,0,0,0,0,0,0,0,0,0,0,0,0,0],"split_type":[0,0,0,0,0,0,0,0,0,0,0,0,0,0,0,0,0,0,0,0,0,0,0,0,0,0,0,0,0,0,0,0,0,0,0,0,0,0,0,0,0,0,0,0,0,0,0,0,0,0,0,0,0,0,0,0,0,0,0,0,0,0,0],"sum_hessian":[6.14E2,6.1E2,4E0,5.64E2,4.6E1,3E0,1E0,1.95E2,3.69E2,1.4E1,3.2E1,1.5E2,4.5E1,6.6E1,3.03E2,9E0,5E0,9E0,2.3E1,1.26E2,2.4E1,1.9E1,2.6E1,2E1,4.6E1,3E1,2.73E2,4E0,5E0,1E0,4E0,5E0,4E0,1E1,1.3E1,1.23E2,3E0,2E1,4E0,1.6E1,3E0,1.1E1,1.5E1,1.2E1,8E0,4.1E1,5E0,2.7E1,3E0,8E0,2.65E2,2E0,2E0,4E0,1E0,3E0,2E0,1E0,3E0,5E0,5E0,8E0,5E0],"tree_param":{"num_deleted":"0","num_feature":"8","num_nodes":"63","size_leaf_vector":"1"}},{"base_weights":[2.633231E-4,-8.414334E-3,2.5164909E-3,-3.0049474E-3,-4.575414E-2,3.1427823E-2,6.2549865E-4,6.8240776E-3,-2.0867795E-2,-8.267014E-3,-9.277087E-2,-2.3844698E-3,6.539908E-2,1.4829127E-2,-2.3585323E-3,-8.116592E-3,4.4206522E-2,-3.0301246E-3,-5.0395235E-2,1.5181489E-2,-3.4751818E-2,-1.2722255E-1,-4.4277706E-3,-2.5306776E-2,2.3701183E-2,4.476957E-3,1.0551639E-1,2.8314642E-3,9.852962E-2,-5.470542E-3,1.9872991E-2,5.6297764E-2,-1.914264E-2,2.3691736E-2,4.7819402E-2,-1.2994537E-2,5.5022776E-2,-7.7688046E-2,1.9727996E-2,1.3372515E-3,1.2660403E-2,-4.744929E-3,-1.595243E-2,-4.9167313E-2,-1.44439675E-2,-4.1555646E-3,2.1630675E-3,-4.811995E-3,-4.07402E-2,2.1432713E-4,4.7134455E-2,-3.5197972E-3,4.8937686E-3,1.644273E-1,-9.229076E-3,-1.8065367E-2,3.556822E-2,2.6079544E-1,-8.269364E-3,-1.6501741E-3,-7.683682E-2,6.568902E-2,6.1586755E-3,-4.8833787E-3,5.480497E-2,-2.2262614E-3,-2.2168031E-2,2.2223637E-2,-1.578657E-3,5.134424E-5,-1.2933594E-2,8.261761E-5,2.1954034E-2,-3.1185342E-2,-7.614636E-3,2.1328801E-2,-3.266402E-3,2.2555324E-3,-6.2629697E-4,-1.8493125E-3,-2.859056E-4,-4.044637E-3,4.480278E-3,-1.43432105E-2,-1.8687312E-3,1.2442726E-3,-2.3277998E-3,2.0685717E-3,1.7474735E-2,-2.8035103E-4,-2.079146E-3,5.4511756E-2,